<?xml version="1.0"?>
<opencv_storage>
<stage15>
  <maxWeakCount>56</maxWeakCount>
  <stageThreshold>-1.2205265760421753e+00</stageThreshold>
  <weakClassifiers>
    <_>
      <internalNodes>
        0 -1 185436 2.5580113288015127e-04</internalNodes>
      <leafValues>
        -4.0627884864807129e-01 5.2376333624124527e-02</leafValues></_>
    <_>
      <internalNodes>
        0 -1 40988 -1.9087039399892092e-03</internalNodes>
      <leafValues>
        3.0371102690696716e-01 -1.5595974028110504e-01</leafValues></_>
    <_>
      <internalNodes>
        0 -1 14290 2.4628514074720442e-04</internalNodes>
      <leafValues>
        -2.3862941563129425e-01 1.8518787622451782e-01</leafValues></_>
    <_>
      <internalNodes>
        0 -1 151316 4.4112876057624817e-03</internalNodes>
      <leafValues>
        -9.8756127059459686e-02 3.7615102529525757e-01</leafValues></_>
    <_>
      <internalNodes>
        0 -1 2800 -7.8635275363922119e-02</internalNodes>
      <leafValues>
        3.8752314448356628e-01 -9.9635161459445953e-02</leafValues></_>
    <_>
      <internalNodes>
        0 -1 102229 2.3747463710606098e-03</internalNodes>
      <leafValues>
        -8.4357768297195435e-02 3.1092041730880737e-01</leafValues></_>
    <_>
      <internalNodes>
        0 -1 90543 1.9845212809741497e-03</internalNodes>
      <leafValues>
        -1.8037283420562744e-01 2.6313138008117676e-01</leafValues></_>
    <_>
      <internalNodes>
        0 -1 40138 -1.6302156727761030e-03</internalNodes>
      <leafValues>
        2.5262734293937683e-01 -1.2356659024953842e-01</leafValues></_>
    <_>
      <internalNodes>
        0 -1 106523 -1.2897657230496407e-02</internalNodes>
      <leafValues>
        5.1085817813873291e-01 -3.1671263277530670e-02</leafValues></_>
    <_>
      <internalNodes>
        0 -1 76962 -1.1534082703292370e-02</internalNodes>
      <leafValues>
        2.0227217674255371e-01 -1.4425101876258850e-01</leafValues></_>
    <_>
      <internalNodes>
        0 -1 100195 -2.9364417423494160e-04</internalNodes>
      <leafValues>
        -2.3660303652286530e-01 1.2168910354375839e-01</leafValues></_>
    <_>
      <internalNodes>
        0 -1 189487 -4.5539435814134777e-04</internalNodes>
      <leafValues>
        -3.7979096174240112e-01 6.0880336910486221e-02</leafValues></_>
    <_>
      <internalNodes>
        0 -1 161585 -8.3034858107566833e-03</internalNodes>
      <leafValues>
        2.5251343846321106e-01 -1.0917969793081284e-01</leafValues></_>
    <_>
      <internalNodes>
        0 -1 88211 2.6738278567790985e-02</internalNodes>
      <leafValues>
        1.0252042859792709e-01 -2.7933874726295471e-01</leafValues></_>
    <_>
      <internalNodes>
        0 -1 14321 1.2254612520337105e-02</internalNodes>
      <leafValues>
        7.0138230919837952e-02 -3.5166159272193909e-01</leafValues></_>
    <_>
      <internalNodes>
        0 -1 79334 -2.1424720762297511e-04</internalNodes>
      <leafValues>
        -2.6129809021949768e-01 1.1420690268278122e-01</leafValues></_>
    <_>
      <internalNodes>
        0 -1 189333 3.5891740117222071e-04</internalNodes>
      <leafValues>
        -1.4961943030357361e-01 2.1066488325595856e-01</leafValues></_>
    <_>
      <internalNodes>
        0 -1 42933 -4.5756384730339050e-02</internalNodes>
      <leafValues>
        -5.9322923421859741e-01 6.1780970543622971e-02</leafValues></_>
    <_>
      <internalNodes>
        0 -1 185346 1.1642707977443933e-03</internalNodes>
      <leafValues>
        -1.2707716226577759e-01 2.3581743240356445e-01</leafValues></_>
    <_>
      <internalNodes>
        0 -1 187724 -1.6342364251613617e-03</internalNodes>
      <leafValues>
        -3.7255647778511047e-01 8.1111200153827667e-02</leafValues></_>
    <_>
      <internalNodes>
        0 -1 102402 1.8659312045201659e-03</internalNodes>
      <leafValues>
        -1.4206597208976746e-01 2.0812675356864929e-01</leafValues></_>
    <_>
      <internalNodes>
        0 -1 190385 5.1324756350368261e-04</internalNodes>
      <leafValues>
        -1.1024583876132965e-01 2.3444022238254547e-01</leafValues></_>
    <_>
      <internalNodes>
        0 -1 186562 1.2947182171046734e-02</internalNodes>
      <leafValues>
        3.8321685045957565e-02 -6.0850030183792114e-01</leafValues></_>
    <_>
      <internalNodes>
        0 -1 148905 -1.6328162746503949e-04</internalNodes>
      <leafValues>
        -2.7929586172103882e-01 8.2917287945747375e-02</leafValues></_>
    <_>
      <internalNodes>
        0 -1 105018 9.9698737263679504e-02</internalNodes>
      <leafValues>
        3.7260845303535461e-02 -7.2610825300216675e-01</leafValues></_>
    <_>
      <internalNodes>
        0 -1 41678 -1.0597087675705552e-03</internalNodes>
      <leafValues>
        2.6941996812820435e-01 -9.6436463296413422e-02</leafValues></_>
    <_>
      <internalNodes>
        0 -1 121539 7.3532890528440475e-03</internalNodes>
      <leafValues>
        -3.9571356028318405e-02 5.3096014261245728e-01</leafValues></_>
    <_>
      <internalNodes>
        0 -1 91129 2.7439146651886404e-04</internalNodes>
      <leafValues>
        9.2819169163703918e-02 -2.7268534898757935e-01</leafValues></_>
    <_>
      <internalNodes>
        0 -1 40584 1.1106721125543118e-02</internalNodes>
      <leafValues>
        2.5338327512145042e-02 -7.8796494007110596e-01</leafValues></_>
    <_>
      <internalNodes>
        0 -1 13657 2.7346122078597546e-03</internalNodes>
      <leafValues>
        -1.7703780531883240e-01 1.4012257754802704e-01</leafValues></_>
    <_>
      <internalNodes>
        0 -1 187264 1.8491859082132578e-03</internalNodes>
      <leafValues>
        1.0300806909799576e-01 -2.7890166640281677e-01</leafValues></_>
    <_>
      <internalNodes>
        0 -1 189101 -5.0822732737287879e-04</internalNodes>
      <leafValues>
        -3.2679283618927002e-01 8.8738292455673218e-02</leafValues></_>
    <_>
      <internalNodes>
        0 -1 16655 3.8106217980384827e-02</internalNodes>
      <leafValues>
        3.7146013230085373e-02 -6.1979460716247559e-01</leafValues></_>
    <_>
      <internalNodes>
        0 -1 131837 -3.3561602234840393e-02</internalNodes>
      <leafValues>
        6.7540520429611206e-01 -4.0340736508369446e-02</leafValues></_>
    <_>
      <internalNodes>
        0 -1 113130 -1.7855721525847912e-03</internalNodes>
      <leafValues>
        1.6112849116325378e-01 -1.6131484508514404e-01</leafValues></_>
    <_>
      <internalNodes>
        0 -1 84357 -8.9896963909268379e-03</internalNodes>
      <leafValues>
        4.3396896123886108e-01 -6.3899844884872437e-02</leafValues></_>
    <_>
      <internalNodes>
        0 -1 34678 -1.0753386653959751e-02</internalNodes>
      <leafValues>
        -2.4486786127090454e-01 9.6508659422397614e-02</leafValues></_>
    <_>
      <internalNodes>
        0 -1 146867 -4.4180786062497646e-05</internalNodes>
      <leafValues>
        1.2830933928489685e-01 -1.7429114878177643e-01</leafValues></_>
    <_>
      <internalNodes>
        0 -1 146388 -1.0116565681528300e-04</internalNodes>
      <leafValues>
        1.7240825295448303e-01 -1.5485031902790070e-01</leafValues></_>
    <_>
      <internalNodes>
        0 -1 46695 -1.2957017868757248e-02</internalNodes>
      <leafValues>
        5.6851911544799805e-01 -4.0188219398260117e-02</leafValues></_>
    <_>
      <internalNodes>
        0 -1 29489 -1.0042705107480288e-03</internalNodes>
      <leafValues>
        1.5455460548400879e-01 -1.8399457633495331e-01</leafValues></_>
    <_>
      <internalNodes>
        0 -1 161905 -4.1177901439368725e-03</internalNodes>
      <leafValues>
        3.4330746531486511e-01 -7.4836015701293945e-02</leafValues></_>
    <_>
      <internalNodes>
        0 -1 182056 -2.4016506504267454e-03</internalNodes>
      <leafValues>
        3.1937453150749207e-01 -8.3044596016407013e-02</leafValues></_>
    <_>
      <internalNodes>
        0 -1 144719 8.6479652673006058e-03</internalNodes>
      <leafValues>
        8.7043017148971558e-02 -3.2791611552238464e-01</leafValues></_>
    <_>
      <internalNodes>
        0 -1 149125 1.2375863641500473e-01</internalNodes>
      <leafValues>
        -4.2102858424186707e-02 7.0680850744247437e-01</leafValues></_>
    <_>
      <internalNodes>
        0 -1 12386 -1.9409067463129759e-03</internalNodes>
      <leafValues>
        3.3493059873580933e-01 -7.1051470935344696e-02</leafValues></_>
    <_>
      <internalNodes>
        0 -1 86537 4.8432489857077599e-03</internalNodes>
      <leafValues>
        5.4260980337858200e-02 -4.4610622525215149e-01</leafValues></_>
    <_>
      <internalNodes>
        0 -1 170803 -7.0212171413004398e-03</internalNodes>
      <leafValues>
        2.2393569350242615e-01 -1.0410176962614059e-01</leafValues></_>
    <_>
      <internalNodes>
        0 -1 170656 -3.5620315466076136e-03</internalNodes>
      <leafValues>
        1.7860147356987000e-01 -1.5171650052070618e-01</leafValues></_>
    <_>
      <internalNodes>
        0 -1 114104 8.4525220096111298e-02</internalNodes>
      <leafValues>
        -9.1656640172004700e-02 3.0732700228691101e-01</leafValues></_>
    <_>
      <internalNodes>
        0 -1 61276 4.2916825041174889e-03</internalNodes>
      <leafValues>
        -1.3469614088535309e-01 1.8333065509796143e-01</leafValues></_>
    <_>
      <internalNodes>
        0 -1 95406 -5.3073065355420113e-03</internalNodes>
      <leafValues>
        2.2662098705768585e-01 -1.1442726850509644e-01</leafValues></_>
    <_>
      <internalNodes>
        0 -1 68346 -4.0379073470830917e-03</internalNodes>
      <leafValues>
        3.5970112681388855e-01 -6.6153228282928467e-02</leafValues></_>
    <_>
      <internalNodes>
        0 -1 13921 1.7325251828879118e-03</internalNodes>
      <leafValues>
        -1.2549461424350739e-01 2.0495992898941040e-01</leafValues></_>
    <_>
      <internalNodes>
        0 -1 27404 4.9054799601435661e-03</internalNodes>
      <leafValues>
        5.8864865452051163e-02 -4.1683369874954224e-01</leafValues></_>
    <_>
      <internalNodes>
        0 -1 52948 -3.7256088107824326e-03</internalNodes>
      <leafValues>
        -5.9663486480712891e-01 3.9007663726806641e-02</leafValues></_></weakClassifiers></stage15>
</opencv_storage>
