<?xml version="1.0"?>
<opencv_storage>
<stage14>
  <maxWeakCount>56</maxWeakCount>
  <stageThreshold>-1.2599418163299561e+00</stageThreshold>
  <weakClassifiers>
    <_>
      <internalNodes>
        0 -1 111939 -6.5672919154167175e-03</internalNodes>
      <leafValues>
        1.6820083558559418e-01 -3.2080447673797607e-01</leafValues></_>
    <_>
      <internalNodes>
        0 -1 185408 8.1157998647540808e-04</internalNodes>
      <leafValues>
        -1.7897126078605652e-01 2.5824615359306335e-01</leafValues></_>
    <_>
      <internalNodes>
        0 -1 64594 6.0656599700450897e-02</internalNodes>
      <leafValues>
        -7.8569129109382629e-02 4.8464184999465942e-01</leafValues></_>
    <_>
      <internalNodes>
        0 -1 139619 -6.2794648110866547e-03</internalNodes>
      <leafValues>
        2.3409907519817352e-01 -1.4630295336246490e-01</leafValues></_>
    <_>
      <internalNodes>
        0 -1 31159 -9.2380065470933914e-03</internalNodes>
      <leafValues>
        1.7674586176872253e-01 -1.8693511188030243e-01</leafValues></_>
    <_>
      <internalNodes>
        0 -1 95340 -3.8467885460704565e-03</internalNodes>
      <leafValues>
        2.8695061802864075e-01 -1.1142722517251968e-01</leafValues></_>
    <_>
      <internalNodes>
        0 -1 148450 -7.2279112646356225e-04</internalNodes>
      <leafValues>
        2.4294812977313995e-01 -1.3103836774826050e-01</leafValues></_>
    <_>
      <internalNodes>
        0 -1 185252 1.0947063565254211e-03</internalNodes>
      <leafValues>
        5.3514521569013596e-02 -4.0802207589149475e-01</leafValues></_>
    <_>
      <internalNodes>
        0 -1 187477 2.1379813551902771e-03</internalNodes>
      <leafValues>
        -9.1177523136138916e-02 3.6767667531967163e-01</leafValues></_>
    <_>
      <internalNodes>
        0 -1 187177 -2.6719037443399429e-02</internalNodes>
      <leafValues>
        -7.2696733474731445e-01 3.2250124961137772e-02</leafValues></_>
    <_>
      <internalNodes>
        0 -1 130690 -3.9014719426631927e-02</internalNodes>
      <leafValues>
        4.7346794605255127e-01 -4.9084234982728958e-02</leafValues></_>
    <_>
      <internalNodes>
        0 -1 111625 -2.9334142804145813e-02</internalNodes>
      <leafValues>
        -7.2579133510589600e-01 2.7457688003778458e-02</leafValues></_>
    <_>
      <internalNodes>
        0 -1 182601 -1.2515056878328323e-02</internalNodes>
      <leafValues>
        6.0808056592941284e-01 -4.0262602269649506e-02</leafValues></_>
    <_>
      <internalNodes>
        0 -1 112914 -7.1950219571590424e-03</internalNodes>
      <leafValues>
        -6.6729170083999634e-01 3.3882223069667816e-02</leafValues></_>
    <_>
      <internalNodes>
        0 -1 167895 -2.6224246248602867e-03</internalNodes>
      <leafValues>
        4.2502194643020630e-01 -6.2260400503873825e-02</leafValues></_>
    <_>
      <internalNodes>
        0 -1 185393 4.4589140452444553e-03</internalNodes>
      <leafValues>
        3.1234009191393852e-02 -6.9316661357879639e-01</leafValues></_>
    <_>
      <internalNodes>
        0 -1 187723 3.4323794534429908e-04</internalNodes>
      <leafValues>
        -1.7548251152038574e-01 1.9077542424201965e-01</leafValues></_>
    <_>
      <internalNodes>
        0 -1 186170 1.0859044268727303e-02</internalNodes>
      <leafValues>
        4.2324114590883255e-02 -5.3185552358627319e-01</leafValues></_>
    <_>
      <internalNodes>
        0 -1 14331 -3.3334016799926758e-02</internalNodes>
      <leafValues>
        -5.0611811876296997e-01 4.4239833950996399e-02</leafValues></_>
    <_>
      <internalNodes>
        0 -1 79905 -2.3578269407153130e-02</internalNodes>
      <leafValues>
        -5.6721496582031250e-01 4.2270820587873459e-02</leafValues></_>
    <_>
      <internalNodes>
        0 -1 166970 -2.6053436100482941e-02</internalNodes>
      <leafValues>
        -6.3623559474945068e-01 2.3364564403891563e-02</leafValues></_>
    <_>
      <internalNodes>
        0 -1 69485 3.9719529449939728e-03</internalNodes>
      <leafValues>
        -5.9420458972454071e-02 3.8300433754920959e-01</leafValues></_>
    <_>
      <internalNodes>
        0 -1 30296 2.5728050619363785e-02</internalNodes>
      <leafValues>
        -1.1909556388854980e-01 2.1333698928356171e-01</leafValues></_>
    <_>
      <internalNodes>
        0 -1 112000 2.7009213226847351e-04</internalNodes>
      <leafValues>
        1.1237664520740509e-01 -2.3985306918621063e-01</leafValues></_>
    <_>
      <internalNodes>
        0 -1 91690 4.6114526689052582e-02</internalNodes>
      <leafValues>
        2.8114514425396919e-02 -8.3287370204925537e-01</leafValues></_>
    <_>
      <internalNodes>
        0 -1 84043 -5.3443983197212219e-02</internalNodes>
      <leafValues>
        -3.0888408422470093e-01 7.5670249760150909e-02</leafValues></_>
    <_>
      <internalNodes>
        0 -1 104233 3.8507439196109772e-02</internalNodes>
      <leafValues>
        7.8992441296577454e-02 -3.2602640986442566e-01</leafValues></_>
    <_>
      <internalNodes>
        0 -1 121563 -1.7349586414638907e-04</internalNodes>
      <leafValues>
        -2.8833663463592529e-01 8.2773581147193909e-02</leafValues></_>
    <_>
      <internalNodes>
        0 -1 48107 -2.4528300762176514e-01</internalNodes>
      <leafValues>
        -8.3907896280288696e-01 2.5921270251274109e-02</leafValues></_>
    <_>
      <internalNodes>
        0 -1 116182 3.1412737444043159e-03</internalNodes>
      <leafValues>
        -8.0504946410655975e-02 3.4948986768722534e-01</leafValues></_>
    <_>
      <internalNodes>
        0 -1 18764 6.1642220243811607e-03</internalNodes>
      <leafValues>
        7.3805980384349823e-02 -3.7504729628562927e-01</leafValues></_>
    <_>
      <internalNodes>
        0 -1 92280 -2.3363786749541759e-03</internalNodes>
      <leafValues>
        1.7050859332084656e-01 -1.4407825469970703e-01</leafValues></_>
    <_>
      <internalNodes>
        0 -1 182111 -1.7520215362310410e-02</internalNodes>
      <leafValues>
        4.3297746777534485e-01 -7.3364295065402985e-02</leafValues></_>
    <_>
      <internalNodes>
        0 -1 190422 -2.5739445118233562e-04</internalNodes>
      <leafValues>
        2.4856737256050110e-01 -1.2075600773096085e-01</leafValues></_>
    <_>
      <internalNodes>
        0 -1 13592 -2.4193240702152252e-01</internalNodes>
      <leafValues>
        -6.3204008340835571e-01 4.6224862337112427e-02</leafValues></_>
    <_>
      <internalNodes>
        0 -1 61241 -4.7402624040842056e-03</internalNodes>
      <leafValues>
        -3.1824564933776855e-01 7.2683684527873993e-02</leafValues></_>
    <_>
      <internalNodes>
        0 -1 40228 1.0872089769691229e-03</internalNodes>
      <leafValues>
        6.9177486002445221e-02 -3.5369887948036194e-01</leafValues></_>
    <_>
      <internalNodes>
        0 -1 159543 -3.8257520645856857e-03</internalNodes>
      <leafValues>
        1.7445924878120422e-01 -1.4023704826831818e-01</leafValues></_>
    <_>
      <internalNodes>
        0 -1 189596 8.2697868347167969e-03</internalNodes>
      <leafValues>
        -6.1699055135250092e-02 4.0654012560844421e-01</leafValues></_>
    <_>
      <internalNodes>
        0 -1 105206 -4.5424662530422211e-03</internalNodes>
      <leafValues>
        2.7334883809089661e-01 -8.8421255350112915e-02</leafValues></_>
    <_>
      <internalNodes>
        0 -1 111901 2.1965554915368557e-03</internalNodes>
      <leafValues>
        -7.1389168500900269e-02 3.6723259091377258e-01</leafValues></_>
    <_>
      <internalNodes>
        0 -1 178877 2.1623723208904266e-02</internalNodes>
      <leafValues>
        4.3282326310873032e-02 -5.2538424730300903e-01</leafValues></_>
    <_>
      <internalNodes>
        0 -1 26486 -9.0455543249845505e-03</internalNodes>
      <leafValues>
        -5.6549853086471558e-01 4.2466256767511368e-02</leafValues></_>
    <_>
      <internalNodes>
        0 -1 26468 -1.8166031222790480e-03</internalNodes>
      <leafValues>
        2.5082087516784668e-01 -1.1001076549291611e-01</leafValues></_>
    <_>
      <internalNodes>
        0 -1 65037 2.3327711969614029e-03</internalNodes>
      <leafValues>
        9.1160066425800323e-02 -2.8722831606864929e-01</leafValues></_>
    <_>
      <internalNodes>
        0 -1 76032 4.0351999923586845e-03</internalNodes>
      <leafValues>
        -8.2389958202838898e-02 3.3583608269691467e-01</leafValues></_>
    <_>
      <internalNodes>
        0 -1 116474 -1.8208997789770365e-04</internalNodes>
      <leafValues>
        -2.2211976349353790e-01 1.1667813360691071e-01</leafValues></_>
    <_>
      <internalNodes>
        0 -1 112167 2.3806074634194374e-02</internalNodes>
      <leafValues>
        3.5371690988540649e-02 -6.7735779285430908e-01</leafValues></_>
    <_>
      <internalNodes>
        0 -1 123757 -5.5227841949090362e-04</internalNodes>
      <leafValues>
        -2.5430169701576233e-01 8.8245131075382233e-02</leafValues></_>
    <_>
      <internalNodes>
        0 -1 15602 6.2317326664924622e-03</internalNodes>
      <leafValues>
        8.0101929605007172e-02 -2.8131666779518127e-01</leafValues></_>
    <_>
      <internalNodes>
        0 -1 25359 -5.5743912234902382e-03</internalNodes>
      <leafValues>
        3.3409789204597473e-01 -7.0674993097782135e-02</leafValues></_>
    <_>
      <internalNodes>
        0 -1 43564 -3.7124808877706528e-03</internalNodes>
      <leafValues>
        1.8376682698726654e-01 -1.2134059518575668e-01</leafValues></_>
    <_>
      <internalNodes>
        0 -1 15314 1.5750452876091003e-01</internalNodes>
      <leafValues>
        -9.6944049000740051e-02 3.0845755338668823e-01</leafValues></_>
    <_>
      <internalNodes>
        0 -1 83596 1.0998098179697990e-02</internalNodes>
      <leafValues>
        3.1351801007986069e-02 -6.2369656562805176e-01</leafValues></_>
    <_>
      <internalNodes>
        0 -1 182354 -1.0397864505648613e-02</internalNodes>
      <leafValues>
        -7.7141010761260986e-01 2.7049565687775612e-02</leafValues></_>
    <_>
      <internalNodes>
        0 -1 158796 -1.4851782470941544e-02</internalNodes>
      <leafValues>
        5.3806930780410767e-01 -4.8792965710163116e-02</leafValues></_></weakClassifiers></stage14>
</opencv_storage>
