<?xml version="1.0"?>
<opencv_storage>
<stage13>
  <maxWeakCount>60</maxWeakCount>
  <stageThreshold>-1.2279742956161499e+00</stageThreshold>
  <weakClassifiers>
    <_>
      <internalNodes>
        0 -1 182940 -6.5617886139079928e-04</internalNodes>
      <leafValues>
        1.2724758684635162e-01 -3.4363767504692078e-01</leafValues></_>
    <_>
      <internalNodes>
        0 -1 122052 -5.1315277814865112e-03</internalNodes>
      <leafValues>
        1.6418610513210297e-01 -2.8196021914482117e-01</leafValues></_>
    <_>
      <internalNodes>
        0 -1 155792 -1.1996966786682606e-03</internalNodes>
      <leafValues>
        3.2320138812065125e-01 -1.1640274524688721e-01</leafValues></_>
    <_>
      <internalNodes>
        0 -1 18083 -7.2750030085444450e-03</internalNodes>
      <leafValues>
        3.4956687688827515e-01 -1.1248195171356201e-01</leafValues></_>
    <_>
      <internalNodes>
        0 -1 15874 3.0566158890724182e-01</internalNodes>
      <leafValues>
        -9.6079275012016296e-02 4.7447213530540466e-01</leafValues></_>
    <_>
      <internalNodes>
        0 -1 154287 -1.8612118437886238e-02</internalNodes>
      <leafValues>
        5.2038782835006714e-01 -6.2716819345951080e-02</leafValues></_>
    <_>
      <internalNodes>
        0 -1 75995 3.6855472717434168e-03</internalNodes>
      <leafValues>
        -5.8687031269073486e-02 4.4632264971733093e-01</leafValues></_>
    <_>
      <internalNodes>
        0 -1 179330 1.5268991701304913e-03</internalNodes>
      <leafValues>
        -9.8045386373996735e-02 3.0813702940940857e-01</leafValues></_>
    <_>
      <internalNodes>
        0 -1 5328 8.6617479100823402e-03</internalNodes>
      <leafValues>
        1.0229403525590897e-01 -3.8287061452865601e-01</leafValues></_>
    <_>
      <internalNodes>
        0 -1 190202 -4.0968498215079308e-03</internalNodes>
      <leafValues>
        -4.8172727227210999e-01 3.4082807600498199e-02</leafValues></_>
    <_>
      <internalNodes>
        0 -1 98378 2.6882870588451624e-03</internalNodes>
      <leafValues>
        -4.2292755097150803e-02 4.9816301465034485e-01</leafValues></_>
    <_>
      <internalNodes>
        0 -1 190101 1.2442391365766525e-02</internalNodes>
      <leafValues>
        -7.0063009858131409e-02 4.5022413134574890e-01</leafValues></_>
    <_>
      <internalNodes>
        0 -1 28249 -5.5764941498637199e-03</internalNodes>
      <leafValues>
        1.5749190747737885e-01 -1.6867093741893768e-01</leafValues></_>
    <_>
      <internalNodes>
        0 -1 138566 -3.6385099519975483e-04</internalNodes>
      <leafValues>
        -3.6294266581535339e-01 7.6971523463726044e-02</leafValues></_>
    <_>
      <internalNodes>
        0 -1 13538 -1.5585547685623169e-01</internalNodes>
      <leafValues>
        -5.5240386724472046e-01 5.5242545902729034e-02</leafValues></_>
    <_>
      <internalNodes>
        0 -1 100646 -2.0335260778665543e-03</internalNodes>
      <leafValues>
        -2.8086104989051819e-01 7.8442797064781189e-02</leafValues></_>
    <_>
      <internalNodes>
        0 -1 30041 3.0079431831836700e-02</internalNodes>
      <leafValues>
        7.8145079314708710e-02 -2.8922030329704285e-01</leafValues></_>
    <_>
      <internalNodes>
        0 -1 56563 -1.4262622594833374e-01</internalNodes>
      <leafValues>
        -5.0184851884841919e-01 5.4794296622276306e-02</leafValues></_>
    <_>
      <internalNodes>
        0 -1 122429 9.1967899352312088e-03</internalNodes>
      <leafValues>
        2.6513842865824699e-02 -7.3132389783859253e-01</leafValues></_>
    <_>
      <internalNodes>
        0 -1 41716 -3.1282580457627773e-03</internalNodes>
      <leafValues>
        -5.9651929140090942e-01 3.8149051368236542e-02</leafValues></_>
    <_>
      <internalNodes>
        0 -1 145343 -1.6516114119440317e-03</internalNodes>
      <leafValues>
        2.5481647253036499e-01 -1.0739827901124954e-01</leafValues></_>
    <_>
      <internalNodes>
        0 -1 40186 3.5373441874980927e-02</internalNodes>
      <leafValues>
        4.2264994233846664e-02 -6.9946676492691040e-01</leafValues></_>
    <_>
      <internalNodes>
        0 -1 8020 -4.9807909876108170e-02</internalNodes>
      <leafValues>
        3.9910754561424255e-01 -6.7760340869426727e-02</leafValues></_>
    <_>
      <internalNodes>
        0 -1 145456 1.6025803983211517e-02</internalNodes>
      <leafValues>
        5.2822764962911606e-02 -4.8859652876853943e-01</leafValues></_>
    <_>
      <internalNodes>
        0 -1 147931 -2.3892184253782034e-03</internalNodes>
      <leafValues>
        -6.9513386487960815e-01 2.4117119610309601e-02</leafValues></_>
    <_>
      <internalNodes>
        0 -1 114647 4.2564846808090806e-04</internalNodes>
      <leafValues>
        9.8987497389316559e-02 -2.3020054399967194e-01</leafValues></_>
    <_>
      <internalNodes>
        0 -1 136227 -7.9774130135774612e-03</internalNodes>
      <leafValues>
        3.6633944511413574e-01 -6.5426558256149292e-02</leafValues></_>
    <_>
      <internalNodes>
        0 -1 71213 1.2122285552322865e-03</internalNodes>
      <leafValues>
        -1.2463970482349396e-01 2.0293384790420532e-01</leafValues></_>
    <_>
      <internalNodes>
        0 -1 10199 1.0502780787646770e-02</internalNodes>
      <leafValues>
        -1.1836623400449753e-01 2.1789830923080444e-01</leafValues></_>
    <_>
      <internalNodes>
        0 -1 113721 -2.8736196458339691e-02</internalNodes>
      <leafValues>
        -7.5519686937332153e-01 3.5227850079536438e-02</leafValues></_>
    <_>
      <internalNodes>
        0 -1 148502 -2.5485679507255554e-03</internalNodes>
      <leafValues>
        -6.3988190889358521e-01 3.6932475864887238e-02</leafValues></_>
    <_>
      <internalNodes>
        0 -1 153613 1.4422193169593811e-02</internalNodes>
      <leafValues>
        6.1313889920711517e-02 -4.0791520476341248e-01</leafValues></_>
    <_>
      <internalNodes>
        0 -1 47815 3.2836332917213440e-02</internalNodes>
      <leafValues>
        3.9970099925994873e-02 -6.6475105285644531e-01</leafValues></_>
    <_>
      <internalNodes>
        0 -1 155529 -2.7364571578800678e-03</internalNodes>
      <leafValues>
        1.6786266863346100e-01 -1.3982535898685455e-01</leafValues></_>
    <_>
      <internalNodes>
        0 -1 28356 3.2765902578830719e-02</internalNodes>
      <leafValues>
        3.5223431885242462e-02 -6.0951238870620728e-01</leafValues></_>
    <_>
      <internalNodes>
        0 -1 31287 -2.7092003822326660e-01</internalNodes>
      <leafValues>
        -5.4724502563476563e-01 3.7625283002853394e-02</leafValues></_>
    <_>
      <internalNodes>
        0 -1 85601 -1.2569345533847809e-02</internalNodes>
      <leafValues>
        1.6468560695648193e-01 -1.6480064392089844e-01</leafValues></_>
    <_>
      <internalNodes>
        0 -1 104672 -3.3372598700225353e-03</internalNodes>
      <leafValues>
        1.9051933288574219e-01 -1.3348209857940674e-01</leafValues></_>
    <_>
      <internalNodes>
        0 -1 154959 5.3456739988178015e-04</internalNodes>
      <leafValues>
        9.3184851109981537e-02 -2.7498990297317505e-01</leafValues></_>
    <_>
      <internalNodes>
        0 -1 79977 -9.7150064539164305e-04</internalNodes>
      <leafValues>
        2.0976525545120239e-01 -1.1652838438749313e-01</leafValues></_>
    <_>
      <internalNodes>
        0 -1 105914 1.0026682168245316e-02</internalNodes>
      <leafValues>
        -8.1520594656467438e-02 2.7274474501609802e-01</leafValues></_>
    <_>
      <internalNodes>
        0 -1 14331 1.1243263259530067e-02</internalNodes>
      <leafValues>
        8.6825318634510040e-02 -2.7546972036361694e-01</leafValues></_>
    <_>
      <internalNodes>
        0 -1 127451 2.4445511400699615e-02</internalNodes>
      <leafValues>
        -4.4011902064085007e-02 5.2686339616775513e-01</leafValues></_>
    <_>
      <internalNodes>
        0 -1 112030 -3.6484305746853352e-03</internalNodes>
      <leafValues>
        2.4831880629062653e-01 -1.0047654062509537e-01</leafValues></_>
    <_>
      <internalNodes>
        0 -1 52389 1.1485897703096271e-03</internalNodes>
      <leafValues>
        5.0530813634395599e-02 -4.3103346228599548e-01</leafValues></_>
    <_>
      <internalNodes>
        0 -1 80573 -2.0375745370984077e-02</internalNodes>
      <leafValues>
        2.1141561865806580e-01 -1.0790735483169556e-01</leafValues></_>
    <_>
      <internalNodes>
        0 -1 31685 8.4385313093662262e-03</internalNodes>
      <leafValues>
        -1.4310161769390106e-01 2.0082062482833862e-01</leafValues></_>
    <_>
      <internalNodes>
        0 -1 19052 -8.3799678832292557e-03</internalNodes>
      <leafValues>
        5.4875308275222778e-01 -4.1987907141447067e-02</leafValues></_>
    <_>
      <internalNodes>
        0 -1 189393 -1.9083574414253235e-02</internalNodes>
      <leafValues>
        -4.6962523460388184e-01 5.4120626300573349e-02</leafValues></_>
    <_>
      <internalNodes>
        0 -1 95528 -2.1606064401566982e-03</internalNodes>
      <leafValues>
        -3.4317001700401306e-01 5.6397203356027603e-02</leafValues></_>
    <_>
      <internalNodes>
        0 -1 150602 -2.3390557616949081e-02</internalNodes>
      <leafValues>
        -6.3074171543121338e-01 3.0573137104511261e-02</leafValues></_>
    <_>
      <internalNodes>
        0 -1 174130 -2.1715311333537102e-02</internalNodes>
      <leafValues>
        4.5862624049186707e-01 -5.7747151702642441e-02</leafValues></_>
    <_>
      <internalNodes>
        0 -1 23270 6.6715508699417114e-02</internalNodes>
      <leafValues>
        6.9354809820652008e-02 -3.8223895430564880e-01</leafValues></_>
    <_>
      <internalNodes>
        0 -1 98714 -7.6623328030109406e-02</internalNodes>
      <leafValues>
        4.4615817070007324e-01 -5.4216474294662476e-02</leafValues></_>
    <_>
      <internalNodes>
        0 -1 128491 -2.1657287143170834e-03</internalNodes>
      <leafValues>
        2.8032666444778442e-01 -7.7926635742187500e-02</leafValues></_>
    <_>
      <internalNodes>
        0 -1 44974 9.4341352581977844e-02</internalNodes>
      <leafValues>
        3.8809828460216522e-02 -6.0915625095367432e-01</leafValues></_>
    <_>
      <internalNodes>
        0 -1 24843 -1.0833782143890858e-03</internalNodes>
      <leafValues>
        -2.8514361381530762e-01 7.4605695903301239e-02</leafValues></_>
    <_>
      <internalNodes>
        0 -1 81215 -1.3700728304684162e-03</internalNodes>
      <leafValues>
        -2.0769470930099487e-01 1.0517267137765884e-01</leafValues></_>
    <_>
      <internalNodes>
        0 -1 65045 -6.9925491698086262e-03</internalNodes>
      <leafValues>
        -4.6322789788246155e-01 5.0644040107727051e-02</leafValues></_>
    <_>
      <internalNodes>
        0 -1 54215 2.5926702655851841e-03</internalNodes>
      <leafValues>
        -6.3259892165660858e-02 4.4209885597229004e-01</leafValues></_></weakClassifiers></stage13>
</opencv_storage>
