<?xml version="1.0"?>
<opencv_storage>
<stage6>
  <maxWeakCount>47</maxWeakCount>
  <stageThreshold>-1.2393794059753418e+00</stageThreshold>
  <weakClassifiers>
    <_>
      <internalNodes>
        0 -1 27426 -8.4850378334522247e-03</internalNodes>
      <leafValues>
        2.0485584437847137e-01 -3.5807558894157410e-01</leafValues></_>
    <_>
      <internalNodes>
        0 -1 170788 -1.2820854317396879e-03</internalNodes>
      <leafValues>
        2.6933789253234863e-01 -2.2306370735168457e-01</leafValues></_>
    <_>
      <internalNodes>
        0 -1 138811 9.3715526163578033e-03</internalNodes>
      <leafValues>
        -1.8075288832187653e-01 2.8408655524253845e-01</leafValues></_>
    <_>
      <internalNodes>
        0 -1 121447 -4.9387942999601364e-04</internalNodes>
      <leafValues>
        -5.3792726993560791e-01 8.0247499048709869e-02</leafValues></_>
    <_>
      <internalNodes>
        0 -1 130276 -1.0411519557237625e-02</internalNodes>
      <leafValues>
        5.1532840728759766e-01 -1.0634466260671616e-01</leafValues></_>
    <_>
      <internalNodes>
        0 -1 98071 2.4838455021381378e-02</internalNodes>
      <leafValues>
        1.6265185177326202e-01 -3.0711627006530762e-01</leafValues></_>
    <_>
      <internalNodes>
        0 -1 3631 2.8439853340387344e-02</internalNodes>
      <leafValues>
        -1.8595787882804871e-01 2.2401614487171173e-01</leafValues></_>
    <_>
      <internalNodes>
        0 -1 47143 8.0381650477647781e-03</internalNodes>
      <leafValues>
        8.3398826420307159e-02 -3.9163386821746826e-01</leafValues></_>
    <_>
      <internalNodes>
        0 -1 130459 -3.6050858907401562e-03</internalNodes>
      <leafValues>
        2.5042456388473511e-01 -1.4503252506256104e-01</leafValues></_>
    <_>
      <internalNodes>
        0 -1 166659 -2.6461480185389519e-02</internalNodes>
      <leafValues>
        5.8816534280776978e-01 -6.0752648860216141e-02</leafValues></_>
    <_>
      <internalNodes>
        0 -1 187552 -4.0730489417910576e-03</internalNodes>
      <leafValues>
        4.7448185086250305e-01 -6.8053275346755981e-02</leafValues></_>
    <_>
      <internalNodes>
        0 -1 77547 9.7635313868522644e-03</internalNodes>
      <leafValues>
        4.6910066157579422e-02 -7.5641345977783203e-01</leafValues></_>
    <_>
      <internalNodes>
        0 -1 171861 -5.8657608926296234e-02</internalNodes>
      <leafValues>
        2.5637698173522949e-01 -1.3781967759132385e-01</leafValues></_>
    <_>
      <internalNodes>
        0 -1 186931 1.7993900924921036e-02</internalNodes>
      <leafValues>
        -1.1442453414201736e-01 3.0732715129852295e-01</leafValues></_>
    <_>
      <internalNodes>
        0 -1 165536 4.6418356942012906e-04</internalNodes>
      <leafValues>
        8.5621364414691925e-02 -4.6101969480514526e-01</leafValues></_>
    <_>
      <internalNodes>
        0 -1 139583 3.2300546765327454e-02</internalNodes>
      <leafValues>
        5.7074911892414093e-02 -4.5904764533042908e-01</leafValues></_>
    <_>
      <internalNodes>
        0 -1 159740 4.2101847939193249e-03</internalNodes>
      <leafValues>
        -8.5729293525218964e-02 3.8429957628250122e-01</leafValues></_>
    <_>
      <internalNodes>
        0 -1 92040 -6.5058637410402298e-03</internalNodes>
      <leafValues>
        1.3848564028739929e-01 -2.2570675611495972e-01</leafValues></_>
    <_>
      <internalNodes>
        0 -1 125203 6.0289832763373852e-03</internalNodes>
      <leafValues>
        5.9424247592687607e-02 -6.5559285879135132e-01</leafValues></_>
    <_>
      <internalNodes>
        0 -1 155873 1.7108373343944550e-02</internalNodes>
      <leafValues>
        -9.2240676283836365e-02 4.2733192443847656e-01</leafValues></_>
    <_>
      <internalNodes>
        0 -1 188968 -1.6266347374767065e-03</internalNodes>
      <leafValues>
        -4.9534529447555542e-01 6.3412539660930634e-02</leafValues></_>
    <_>
      <internalNodes>
        0 -1 165608 -3.7323177093639970e-04</internalNodes>
      <leafValues>
        -3.7671625614166260e-01 7.1860738098621368e-02</leafValues></_>
    <_>
      <internalNodes>
        0 -1 134142 -6.3614025712013245e-03</internalNodes>
      <leafValues>
        3.2095929980278015e-01 -9.6046507358551025e-02</leafValues></_>
    <_>
      <internalNodes>
        0 -1 13311 3.6399927921593189e-03</internalNodes>
      <leafValues>
        -1.6724358499050140e-01 1.7286804318428040e-01</leafValues></_>
    <_>
      <internalNodes>
        0 -1 12931 -4.0373578667640686e-03</internalNodes>
      <leafValues>
        2.1309497952461243e-01 -1.4100049436092377e-01</leafValues></_>
    <_>
      <internalNodes>
        0 -1 27423 -4.5341611839830875e-03</internalNodes>
      <leafValues>
        2.8745916485786438e-01 -1.1375187337398529e-01</leafValues></_>
    <_>
      <internalNodes>
        0 -1 122868 -6.5206363797187805e-02</internalNodes>
      <leafValues>
        2.3966747522354126e-01 -1.1464738100767136e-01</leafValues></_>
    <_>
      <internalNodes>
        0 -1 166674 1.5126068145036697e-02</internalNodes>
      <leafValues>
        -8.5399977862834930e-02 3.6457177996635437e-01</leafValues></_>
    <_>
      <internalNodes>
        0 -1 118756 -2.6276320219039917e-02</internalNodes>
      <leafValues>
        4.2016321420669556e-01 -6.5663419663906097e-02</leafValues></_>
    <_>
      <internalNodes>
        0 -1 102040 6.9966763257980347e-03</internalNodes>
      <leafValues>
        5.8396946638822556e-02 -4.9089515209197998e-01</leafValues></_>
    <_>
      <internalNodes>
        0 -1 48299 2.3429733118973672e-04</internalNodes>
      <leafValues>
        9.3658827245235443e-02 -2.7479809522628784e-01</leafValues></_>
    <_>
      <internalNodes>
        0 -1 174801 7.7011603862047195e-03</internalNodes>
      <leafValues>
        4.4176552444696426e-02 -5.7206314802169800e-01</leafValues></_>
    <_>
      <internalNodes>
        0 -1 100229 -5.8038802817463875e-03</internalNodes>
      <leafValues>
        3.4193110466003418e-01 -8.8880665600299835e-02</leafValues></_>
    <_>
      <internalNodes>
        0 -1 105453 2.3628830909729004e-02</internalNodes>
      <leafValues>
        9.1671220958232880e-02 -3.3322015404701233e-01</leafValues></_>
    <_>
      <internalNodes>
        0 -1 65833 -1.1883456259965897e-02</internalNodes>
      <leafValues>
        -3.2730948925018311e-01 8.2606621086597443e-02</leafValues></_>
    <_>
      <internalNodes>
        0 -1 98478 4.5382482931017876e-03</internalNodes>
      <leafValues>
        -1.1572135239839554e-01 2.5763204693794250e-01</leafValues></_>
    <_>
      <internalNodes>
        0 -1 190156 9.6362485783174634e-04</internalNodes>
      <leafValues>
        6.3862144947052002e-02 -4.3333902955055237e-01</leafValues></_>
    <_>
      <internalNodes>
        0 -1 90049 -5.4836214985698462e-04</internalNodes>
      <leafValues>
        -2.7115619182586670e-01 9.8877206444740295e-02</leafValues></_>
    <_>
      <internalNodes>
        0 -1 53768 -3.4263864159584045e-02</internalNodes>
      <leafValues>
        3.3166071772575378e-01 -9.4223558902740479e-02</leafValues></_>
    <_>
      <internalNodes>
        0 -1 170192 1.1522719432832673e-04</internalNodes>
      <leafValues>
        -1.9881495833396912e-01 1.5844252705574036e-01</leafValues></_>
    <_>
      <internalNodes>
        0 -1 146866 -1.2165290172561072e-05</internalNodes>
      <leafValues>
        1.7817512154579163e-01 -1.6210523247718811e-01</leafValues></_>
    <_>
      <internalNodes>
        0 -1 1096 1.0128295421600342e-01</internalNodes>
      <leafValues>
        -1.1586157977581024e-01 2.4291813373565674e-01</leafValues></_>
    <_>
      <internalNodes>
        0 -1 7958 -5.4039224050939083e-03</internalNodes>
      <leafValues>
        3.3755570650100708e-01 -8.9823745191097260e-02</leafValues></_>
    <_>
      <internalNodes>
        0 -1 125073 -1.8754685297608376e-03</internalNodes>
      <leafValues>
        -3.8496670126914978e-01 8.2498297095298767e-02</leafValues></_>
    <_>
      <internalNodes>
        0 -1 18070 -1.1625587940216064e-02</internalNodes>
      <leafValues>
        -6.2755763530731201e-01 3.6904271692037582e-02</leafValues></_>
    <_>
      <internalNodes>
        0 -1 184871 -4.2429801076650620e-02</internalNodes>
      <leafValues>
        -7.0470291376113892e-01 3.1960517168045044e-02</leafValues></_>
    <_>
      <internalNodes>
        0 -1 26509 6.2621235847473145e-03</internalNodes>
      <leafValues>
        -1.0766839981079102e-01 2.5830966234207153e-01</leafValues></_></weakClassifiers></stage6>
</opencv_storage>
