<?xml version="1.0"?>
<opencv_storage>
<cascade>
  <stageType>BOOST</stageType>
  <featureType>HAAR</featureType>
  <height>25</height>
  <width>25</width>
  <stageParams>
    <boostType>GAB</boostType>
    <minHitRate>9.9500000476837158e-01</minHitRate>
    <maxFalseAlarm>5.0000000000000000e-01</maxFalseAlarm>
    <weightTrimRate>9.4999998807907104e-01</weightTrimRate>
    <maxDepth>1</maxDepth>
    <maxWeakCount>100</maxWeakCount></stageParams>
  <featureParams>
    <maxCatCount>0</maxCatCount>
    <featSize>1</featSize>
    <mode>BASIC</mode></featureParams>
  <stageNum>20</stageNum>
  <stages>
    <!-- stage 0 -->
    <_>
      <maxWeakCount>17</maxWeakCount>
      <stageThreshold>-1.3863708972930908e+00</stageThreshold>
      <weakClassifiers>
        <_>
          <internalNodes>
            0 -1 448 -4.9747722223401070e-03</internalNodes>
          <leafValues>
            4.4545453786849976e-01 -4.6767538785934448e-01</leafValues></_>
        <_>
          <internalNodes>
            0 -1 470 4.9676569178700447e-03</internalNodes>
          <leafValues>
            -3.2308399677276611e-01 4.1731709241867065e-01</leafValues></_>
        <_>
          <internalNodes>
            0 -1 512 -9.7486019134521484e-02</internalNodes>
          <leafValues>
            -7.2001665830612183e-01 1.2997634708881378e-01</leafValues></_>
        <_>
          <internalNodes>
            0 -1 603 4.4939193874597549e-02</internalNodes>
          <leafValues>
            1.4666044712066650e-01 -7.7732062339782715e-01</leafValues></_>
        <_>
          <internalNodes>
            0 -1 122 -5.4719489999115467e-03</internalNodes>
          <leafValues>
            3.7273654341697693e-01 -2.2330342233181000e-01</leafValues></_>
        <_>
          <internalNodes>
            0 -1 494 5.3565106354653835e-03</internalNodes>
          <leafValues>
            -1.0338011384010315e-01 5.6699919700622559e-01</leafValues></_>
        <_>
          <internalNodes>
            0 -1 358 -1.3381793163716793e-02</internalNodes>
          <leafValues>
            3.4395563602447510e-01 -1.9933699071407318e-01</leafValues></_>
        <_>
          <internalNodes>
            0 -1 761 1.8500270089134574e-03</internalNodes>
          <leafValues>
            -2.7232274413108826e-01 2.9167848825454712e-01</leafValues></_>
        <_>
          <internalNodes>
            0 -1 526 -1.3695428147912025e-02</internalNodes>
          <leafValues>
            2.8769025206565857e-01 -2.3524439334869385e-01</leafValues></_>
        <_>
          <internalNodes>
            0 -1 15 2.8205102682113647e-01</internalNodes>
          <leafValues>
            -1.6830304265022278e-01 4.2459079623222351e-01</leafValues></_>
        <_>
          <internalNodes>
            0 -1 565 -3.2558562234044075e-03</internalNodes>
          <leafValues>
            4.0092563629150391e-01 -1.4048096537590027e-01</leafValues></_>
        <_>
          <internalNodes>
            0 -1 910 8.9281046530231833e-04</internalNodes>
          <leafValues>
            -1.4432290196418762e-01 3.8494005799293518e-01</leafValues></_>
        <_>
          <internalNodes>
            0 -1 77 -1.7502020299434662e-01</internalNodes>
          <leafValues>
            3.4139761328697205e-01 -1.7429840564727783e-01</leafValues></_>
        <_>
          <internalNodes>
            0 -1 779 -2.8745312243700027e-02</internalNodes>
          <leafValues>
            3.1644392013549805e-01 -1.8481233716011047e-01</leafValues></_>
        <_>
          <internalNodes>
            0 -1 875 3.3943983726203442e-03</internalNodes>
          <leafValues>
            -1.6610692441463470e-01 3.8612577319145203e-01</leafValues></_>
        <_>
          <internalNodes>
            0 -1 44 -2.2109425626695156e-03</internalNodes>
          <leafValues>
            4.2340630292892456e-01 -1.1823959648609161e-01</leafValues></_>
        <_>
          <internalNodes>
            0 -1 462 -1.5298137441277504e-02</internalNodes>
          <leafValues>
            2.9134666919708252e-01 -1.5334613621234894e-01</leafValues></_></weakClassifiers></_>
    <!-- stage 1 -->
    <_>
      <maxWeakCount>26</maxWeakCount>
      <stageThreshold>-1.4508407115936279e+00</stageThreshold>
      <weakClassifiers>
        <_>
          <internalNodes>
            0 -1 510 -2.5989098474383354e-02</internalNodes>
          <leafValues>
            2.5148987770080566e-01 -4.6823528409004211e-01</leafValues></_>
        <_>
          <internalNodes>
            0 -1 582 1.5172947198152542e-02</internalNodes>
          <leafValues>
            -2.4757623672485352e-01 4.6610674262046814e-01</leafValues></_>
        <_>
          <internalNodes>
            0 -1 820 3.4160641953349113e-03</internalNodes>
          <leafValues>
            -2.5388127565383911e-01 3.5370618104934692e-01</leafValues></_>
        <_>
          <internalNodes>
            0 -1 498 -5.0159897655248642e-03</internalNodes>
          <leafValues>
            3.2525566220283508e-01 -2.2242574393749237e-01</leafValues></_>
        <_>
          <internalNodes>
            0 -1 93 2.2561853751540184e-02</internalNodes>
          <leafValues>
            -1.7886590957641602e-01 3.3907437324523926e-01</leafValues></_>
        <_>
          <internalNodes>
            0 -1 235 -1.2020283192396164e-01</internalNodes>
          <leafValues>
            -5.0603860616683960e-01 1.2568293511867523e-01</leafValues></_>
        <_>
          <internalNodes>
            0 -1 169 4.3263919651508331e-03</internalNodes>
          <leafValues>
            -1.0805732011795044e-01 5.0183141231536865e-01</leafValues></_>
        <_>
          <internalNodes>
            0 -1 169 -2.2826832719147205e-03</internalNodes>
          <leafValues>
            3.8573881983757019e-01 -1.2409397959709167e-01</leafValues></_>
        <_>
          <internalNodes>
            0 -1 849 -1.7479835078120232e-03</internalNodes>
          <leafValues>
            -5.4746115207672119e-01 9.2629209160804749e-02</leafValues></_>
        <_>
          <internalNodes>
            0 -1 469 1.0146698355674744e-01</internalNodes>
          <leafValues>
            7.3319479823112488e-02 -7.1717286109924316e-01</leafValues></_>
        <_>
          <internalNodes>
            0 -1 794 -2.5530325248837471e-02</internalNodes>
          <leafValues>
            6.1326509714126587e-01 -9.4727054238319397e-02</leafValues></_>
        <_>
          <internalNodes>
            0 -1 451 5.8473721146583557e-03</internalNodes>
          <leafValues>
            -9.8558239638805389e-02 4.4915443658828735e-01</leafValues></_>
        <_>
          <internalNodes>
            0 -1 3 3.3745151758193970e-01</internalNodes>
          <leafValues>
            -1.0922902077436447e-01 4.3838152289390564e-01</leafValues></_>
        <_>
          <internalNodes>
            0 -1 19 -5.6464400142431259e-02</internalNodes>
          <leafValues>
            4.8438048362731934e-01 -1.1797980219125748e-01</leafValues></_>
        <_>
          <internalNodes>
            0 -1 869 -1.4622852206230164e-02</internalNodes>
          <leafValues>
            5.2590179443359375e-01 -8.0065600574016571e-02</leafValues></_>
        <_>
          <internalNodes>
            0 -1 201 2.2573918104171753e-02</internalNodes>
          <leafValues>
            1.1754700541496277e-01 -4.8527449369430542e-01</leafValues></_>
        <_>
          <internalNodes>
            0 -1 26 9.9641326814889908e-03</internalNodes>
          <leafValues>
            -1.7143349349498749e-01 2.7696627378463745e-01</leafValues></_>
        <_>
          <internalNodes>
            0 -1 33 -4.0004897862672806e-02</internalNodes>
          <leafValues>
            5.3871649503707886e-01 -6.9507822394371033e-02</leafValues></_>
        <_>
          <internalNodes>
            0 -1 550 -8.5023958235979080e-03</internalNodes>
          <leafValues>
            3.5948014259338379e-01 -1.3791176676750183e-01</leafValues></_>
        <_>
          <internalNodes>
            0 -1 262 -2.2977350745350122e-03</internalNodes>
          <leafValues>
            -5.1855975389480591e-01 7.9081289470195770e-02</leafValues></_>
        <_>
          <internalNodes>
            0 -1 757 -4.7593476483598351e-04</internalNodes>
          <leafValues>
            2.2697649896144867e-01 -2.0144096016883850e-01</leafValues></_>
        <_>
          <internalNodes>
            0 -1 132 -3.9018366951495409e-03</internalNodes>
          <leafValues>
            -6.1134165525436401e-01 5.4899480193853378e-02</leafValues></_>
        <_>
          <internalNodes>
            0 -1 347 2.8779837884940207e-04</internalNodes>
          <leafValues>
            -1.8710559606552124e-01 1.9484670460224152e-01</leafValues></_>
        <_>
          <internalNodes>
            0 -1 283 -9.2887040227651596e-03</internalNodes>
          <leafValues>
            2.5166615843772888e-01 -1.4015907049179077e-01</leafValues></_>
        <_>
          <internalNodes>
            0 -1 870 1.0318298824131489e-02</internalNodes>
          <leafValues>
            6.7304924130439758e-02 -5.2552986145019531e-01</leafValues></_>
        <_>
          <internalNodes>
            0 -1 536 -6.6959592513740063e-03</internalNodes>
          <leafValues>
            2.8937691450119019e-01 -1.2561894953250885e-01</leafValues></_></weakClassifiers></_>
    <!-- stage 2 -->
    <_>
      <maxWeakCount>29</maxWeakCount>
      <stageThreshold>-1.4861969947814941e+00</stageThreshold>
      <weakClassifiers>
        <_>
          <internalNodes>
            0 -1 339 7.3203131556510925e-02</internalNodes>
          <leafValues>
            -3.8368386030197144e-01 3.9633026719093323e-01</leafValues></_>
        <_>
          <internalNodes>
            0 -1 144 2.9719829559326172e-02</internalNodes>
          <leafValues>
            -3.1513163447380066e-01 3.8910686969757080e-01</leafValues></_>
        <_>
          <internalNodes>
            0 -1 855 -3.2267645001411438e-03</internalNodes>
          <leafValues>
            3.5889858007431030e-01 -2.3048569262027740e-01</leafValues></_>
        <_>
          <internalNodes>
            0 -1 50 1.0233063250780106e-02</internalNodes>
          <leafValues>
            -1.4440633356571198e-01 4.7068139910697937e-01</leafValues></_>
        <_>
          <internalNodes>
            0 -1 741 -6.0158814303576946e-03</internalNodes>
          <leafValues>
            2.7593219280242920e-01 -2.1898317337036133e-01</leafValues></_>
        <_>
          <internalNodes>
            0 -1 118 -1.6969785792753100e-03</internalNodes>
          <leafValues>
            4.0668275952339172e-01 -1.4758118987083435e-01</leafValues></_>
        <_>
          <internalNodes>
            0 -1 652 3.0147418146952987e-04</internalNodes>
          <leafValues>
            1.8824653327465057e-01 -3.4548285603523254e-01</leafValues></_>
        <_>
          <internalNodes>
            0 -1 620 -1.3511050492525101e-03</internalNodes>
          <leafValues>
            -4.8334419727325439e-01 1.0086908936500549e-01</leafValues></_>
        <_>
          <internalNodes>
            0 -1 624 -4.3891288340091705e-02</internalNodes>
          <leafValues>
            -5.8538150787353516e-01 7.9114496707916260e-02</leafValues></_>
        <_>
          <internalNodes>
            0 -1 559 2.9648147523403168e-02</internalNodes>
          <leafValues>
            1.4024920761585236e-01 -4.3464708328247070e-01</leafValues></_>
        <_>
          <internalNodes>
            0 -1 549 -6.5726889297366142e-03</internalNodes>
          <leafValues>
            4.0704965591430664e-01 -1.4020177721977234e-01</leafValues></_>
        <_>
          <internalNodes>
            0 -1 186 -2.2308013867586851e-03</internalNodes>
          <leafValues>
            -6.3845181465148926e-01 9.4640977680683136e-02</leafValues></_>
        <_>
          <internalNodes>
            0 -1 930 1.7420966178178787e-03</internalNodes>
          <leafValues>
            -1.5236961841583252e-01 3.6299580335617065e-01</leafValues></_>
        <_>
          <internalNodes>
            0 -1 460 -1.1203479021787643e-02</internalNodes>
          <leafValues>
            2.9303914308547974e-01 -1.7143209278583527e-01</leafValues></_>
        <_>
          <internalNodes>
            0 -1 58 9.8149189725518227e-03</internalNodes>
          <leafValues>
            -2.2356526553630829e-01 3.1640017032623291e-01</leafValues></_>
        <_>
          <internalNodes>
            0 -1 188 3.7059017922729254e-03</internalNodes>
          <leafValues>
            1.0953602939844131e-01 -5.9509503841400146e-01</leafValues></_>
        <_>
          <internalNodes>
            0 -1 348 -2.9739353340119123e-03</internalNodes>
          <leafValues>
            -8.2399922609329224e-01 4.3490529060363770e-02</leafValues></_>
        <_>
          <internalNodes>
            0 -1 237 -3.3611494582146406e-03</internalNodes>
          <leafValues>
            3.9555379748344421e-01 -1.4581494033336639e-01</leafValues></_>
        <_>
          <internalNodes>
            0 -1 924 -6.3109002076089382e-04</internalNodes>
          <leafValues>
            -3.6682644486427307e-01 1.3983157277107239e-01</leafValues></_>
        <_>
          <internalNodes>
            0 -1 619 6.9488433655351400e-04</internalNodes>
          <leafValues>
            9.4133831560611725e-02 -4.8911955952644348e-01</leafValues></_>
        <_>
          <internalNodes>
            0 -1 280 -9.6644923090934753e-02</internalNodes>
          <leafValues>
            -5.6701481342315674e-01 7.6128415763378143e-02</leafValues></_>
        <_>
          <internalNodes>
            0 -1 379 4.9729116261005402e-02</internalNodes>
          <leafValues>
            1.1858561635017395e-01 -4.2214137315750122e-01</leafValues></_>
        <_>
          <internalNodes>
            0 -1 638 1.2614866718649864e-02</internalNodes>
          <leafValues>
            -1.0465504229068756e-01 5.4669451713562012e-01</leafValues></_>
        <_>
          <internalNodes>
            0 -1 882 4.3890564702451229e-03</internalNodes>
          <leafValues>
            6.3803963363170624e-02 -8.4028649330139160e-01</leafValues></_>
        <_>
          <internalNodes>
            0 -1 378 2.0912088453769684e-02</internalNodes>
          <leafValues>
            -7.1098625659942627e-02 7.5900697708129883e-01</leafValues></_>
        <_>
          <internalNodes>
            0 -1 24 9.3965604901313782e-03</internalNodes>
          <leafValues>
            8.2489758729934692e-02 -5.8541792631149292e-01</leafValues></_>
        <_>
          <internalNodes>
            0 -1 85 -4.7096654772758484e-02</internalNodes>
          <leafValues>
            6.6403913497924805e-01 -7.1606934070587158e-02</leafValues></_>
        <_>
          <internalNodes>
            0 -1 915 -1.7243903130292892e-03</internalNodes>
          <leafValues>
            3.1476807594299316e-01 -1.4654915034770966e-01</leafValues></_>
        <_>
          <internalNodes>
            0 -1 858 4.0429811924695969e-03</internalNodes>
          <leafValues>
            7.0368975400924683e-02 -5.8766531944274902e-01</leafValues></_></weakClassifiers></_>
    <!-- stage 3 -->
    <_>
      <maxWeakCount>35</maxWeakCount>
      <stageThreshold>-1.4350597858428955e+00</stageThreshold>
      <weakClassifiers>
        <_>
          <internalNodes>
            0 -1 482 -1.6035888344049454e-02</internalNodes>
          <leafValues>
            5.2659577131271362e-01 -3.3601841330528259e-01</leafValues></_>
        <_>
          <internalNodes>
            0 -1 268 1.3651162385940552e-02</internalNodes>
          <leafValues>
            -2.7544021606445313e-01 3.4239447116851807e-01</leafValues></_>
        <_>
          <internalNodes>
            0 -1 715 -2.6853093877434731e-03</internalNodes>
          <leafValues>
            3.6588951945304871e-01 -2.4655169248580933e-01</leafValues></_>
        <_>
          <internalNodes>
            0 -1 588 -7.7088049147278070e-04</internalNodes>
          <leafValues>
            -4.0871417522430420e-01 1.4575053751468658e-01</leafValues></_>
        <_>
          <internalNodes>
            0 -1 788 -2.3978557437658310e-02</internalNodes>
          <leafValues>
            3.1051638722419739e-01 -1.5632878243923187e-01</leafValues></_>
        <_>
          <internalNodes>
            0 -1 876 -1.1495859362185001e-02</internalNodes>
          <leafValues>
            4.7415009140968323e-01 -1.2271456420421600e-01</leafValues></_>
        <_>
          <internalNodes>
            0 -1 539 -6.8004061176907271e-05</internalNodes>
          <leafValues>
            1.6440102458000183e-01 -2.9063072800636292e-01</leafValues></_>
        <_>
          <internalNodes>
            0 -1 198 1.1120555427623913e-05</internalNodes>
          <leafValues>
            -2.1679185330867767e-01 2.1229936182498932e-01</leafValues></_>
        <_>
          <internalNodes>
            0 -1 92 3.9149284362792969e-02</internalNodes>
          <leafValues>
            -9.8656006157398224e-02 5.1194995641708374e-01</leafValues></_>
        <_>
          <internalNodes>
            0 -1 428 1.1116668581962585e-02</internalNodes>
          <leafValues>
            -6.4593188464641571e-02 5.6166124343872070e-01</leafValues></_>
        <_>
          <internalNodes>
            0 -1 587 1.5176704619079828e-03</internalNodes>
          <leafValues>
            1.3851186633110046e-01 -3.4845989942550659e-01</leafValues></_>
        <_>
          <internalNodes>
            0 -1 922 -1.0806464124470949e-03</internalNodes>
          <leafValues>
            -4.9156320095062256e-01 1.0100530833005905e-01</leafValues></_>
        <_>
          <internalNodes>
            0 -1 449 3.6621990147978067e-03</internalNodes>
          <leafValues>
            -1.4165911078453064e-01 3.5801815986633301e-01</leafValues></_>
        <_>
          <internalNodes>
            0 -1 191 -3.2337699085474014e-03</internalNodes>
          <leafValues>
            -7.2922897338867188e-01 6.7712642252445221e-02</leafValues></_>
        <_>
          <internalNodes>
            0 -1 492 -2.8138665948063135e-03</internalNodes>
          <leafValues>
            3.0140310525894165e-01 -1.5601621568202972e-01</leafValues></_>
        <_>
          <internalNodes>
            0 -1 476 1.0124018788337708e-01</internalNodes>
          <leafValues>
            4.1432030498981476e-02 -9.1305392980575562e-01</leafValues></_>
        <_>
          <internalNodes>
            0 -1 149 1.0615248233079910e-02</internalNodes>
          <leafValues>
            4.4932488352060318e-02 -6.6409718990325928e-01</leafValues></_>
        <_>
          <internalNodes>
            0 -1 880 5.2388636395335197e-03</internalNodes>
          <leafValues>
            -1.3479121029376984e-01 3.0434113740921021e-01</leafValues></_>
        <_>
          <internalNodes>
            0 -1 86 -1.1342069506645203e-01</internalNodes>
          <leafValues>
            3.5343420505523682e-01 -1.1760383099317551e-01</leafValues></_>
        <_>
          <internalNodes>
            0 -1 661 -6.5843507647514343e-02</internalNodes>
          <leafValues>
            2.8019255399703979e-01 -2.0471230149269104e-01</leafValues></_>
        <_>
          <internalNodes>
            0 -1 781 1.0070413351058960e-02</internalNodes>
          <leafValues>
            -8.8123455643653870e-02 4.8678296804428101e-01</leafValues></_>
        <_>
          <internalNodes>
            0 -1 786 1.5347739681601524e-02</internalNodes>
          <leafValues>
            -9.3871138989925385e-02 4.1635590791702271e-01</leafValues></_>
        <_>
          <internalNodes>
            0 -1 246 -2.8013731352984905e-03</internalNodes>
          <leafValues>
            2.5470143556594849e-01 -1.5746600925922394e-01</leafValues></_>
        <_>
          <internalNodes>
            0 -1 187 -3.5502859391272068e-03</internalNodes>
          <leafValues>
            -6.4677524566650391e-01 6.0908213257789612e-02</leafValues></_>
        <_>
          <internalNodes>
            0 -1 684 -9.7503587603569031e-03</internalNodes>
          <leafValues>
            3.7204888463020325e-01 -1.2357226759195328e-01</leafValues></_>
        <_>
          <internalNodes>
            0 -1 193 -3.8114633411169052e-02</internalNodes>
          <leafValues>
            -3.9725339412689209e-01 1.0644990950822830e-01</leafValues></_>
        <_>
          <internalNodes>
            0 -1 172 1.4183862134814262e-02</internalNodes>
          <leafValues>
            -8.5769541561603546e-02 5.1217508316040039e-01</leafValues></_>
        <_>
          <internalNodes>
            0 -1 688 -9.5106987282633781e-03</internalNodes>
          <leafValues>
            -7.0103257894515991e-01 6.4350157976150513e-02</leafValues></_>
        <_>
          <internalNodes>
            0 -1 259 -9.9619489628821611e-04</internalNodes>
          <leafValues>
            2.7871304750442505e-01 -1.5107575058937073e-01</leafValues></_>
        <_>
          <internalNodes>
            0 -1 166 1.4297245070338249e-03</internalNodes>
          <leafValues>
            8.2368768751621246e-02 -4.9115765094757080e-01</leafValues></_>
        <_>
          <internalNodes>
            0 -1 897 4.0691448375582695e-03</internalNodes>
          <leafValues>
            -9.6931770443916321e-02 4.6201241016387939e-01</leafValues></_>
        <_>
          <internalNodes>
            0 -1 883 -2.0132903009653091e-03</internalNodes>
          <leafValues>
            -4.8114308714866638e-01 9.1390766203403473e-02</leafValues></_>
        <_>
          <internalNodes>
            0 -1 155 1.6599127650260925e-01</internalNodes>
          <leafValues>
            6.4457066357135773e-02 -5.7883375883102417e-01</leafValues></_>
        <_>
          <internalNodes>
            0 -1 400 -2.7029663324356079e-03</internalNodes>
          <leafValues>
            -7.5655287504196167e-01 4.2712476104497910e-02</leafValues></_>
        <_>
          <internalNodes>
            0 -1 396 1.5740757808089256e-03</internalNodes>
          <leafValues>
            8.4597952663898468e-02 -3.6077934503555298e-01</leafValues></_></weakClassifiers></_>
    <!-- stage 4 -->
    <_>
      <maxWeakCount>33</maxWeakCount>
      <stageThreshold>-1.3797136545181274e+00</stageThreshold>
      <weakClassifiers>
        <_>
          <internalNodes>
            0 -1 676 9.6751861274242401e-03</internalNodes>
          <leafValues>
            -3.7763974070549011e-01 4.4047617912292480e-01</leafValues></_>
        <_>
          <internalNodes>
            0 -1 265 -3.4045795910060406e-03</internalNodes>
          <leafValues>
            5.0770956277847290e-01 -2.0362405478954315e-01</leafValues></_>
        <_>
          <internalNodes>
            0 -1 34 -1.0379269719123840e-02</internalNodes>
          <leafValues>
            2.9958823323249817e-01 -2.3141205310821533e-01</leafValues></_>
        <_>
          <internalNodes>
            0 -1 300 3.3609926700592041e-02</internalNodes>
          <leafValues>
            -1.3021339476108551e-01 4.4254896044731140e-01</leafValues></_>
        <_>
          <internalNodes>
            0 -1 318 -3.9120838046073914e-03</internalNodes>
          <leafValues>
            2.8700596094131470e-01 -2.2829993069171906e-01</leafValues></_>
        <_>
          <internalNodes>
            0 -1 486 -3.3795703202486038e-03</internalNodes>
          <leafValues>
            5.9049254655838013e-01 -7.6010242104530334e-02</leafValues></_>
        <_>
          <internalNodes>
            0 -1 926 -2.3974943906068802e-03</internalNodes>
          <leafValues>
            4.3332004547119141e-01 -1.1654565483331680e-01</leafValues></_>
        <_>
          <internalNodes>
            0 -1 302 -3.6121718585491180e-02</internalNodes>
          <leafValues>
            3.7355142831802368e-01 -1.0568116605281830e-01</leafValues></_>
        <_>
          <internalNodes>
            0 -1 189 9.8056066781282425e-03</internalNodes>
          <leafValues>
            -8.2032635807991028e-02 5.7105761766433716e-01</leafValues></_>
        <_>
          <internalNodes>
            0 -1 51 3.9838720113039017e-03</internalNodes>
          <leafValues>
            1.0558282583951950e-01 -7.5377249717712402e-01</leafValues></_>
        <_>
          <internalNodes>
            0 -1 369 1.5145399607717991e-02</internalNodes>
          <leafValues>
            -1.2785606086254120e-01 5.2712076902389526e-01</leafValues></_>
        <_>
          <internalNodes>
            0 -1 566 -4.1878623887896538e-03</internalNodes>
          <leafValues>
            -5.3905862569808960e-01 1.2210801988840103e-01</leafValues></_>
        <_>
          <internalNodes>
            0 -1 70 -3.9495486766099930e-02</internalNodes>
          <leafValues>
            -5.4726362228393555e-01 4.3900214135646820e-02</leafValues></_>
        <_>
          <internalNodes>
            0 -1 850 3.7889142986387014e-03</internalNodes>
          <leafValues>
            6.7857868969440460e-02 -7.5113677978515625e-01</leafValues></_>
        <_>
          <internalNodes>
            0 -1 184 -2.0586410537362099e-03</internalNodes>
          <leafValues>
            3.7879714369773865e-01 -1.2799856066703796e-01</leafValues></_>
        <_>
          <internalNodes>
            0 -1 701 1.8525461200624704e-03</internalNodes>
          <leafValues>
            1.1445517092943192e-01 -4.0107959508895874e-01</leafValues></_>
        <_>
          <internalNodes>
            0 -1 349 6.7344205453991890e-03</internalNodes>
          <leafValues>
            1.4500351250171661e-01 -3.1422859430313110e-01</leafValues></_>
        <_>
          <internalNodes>
            0 -1 945 -2.5873449631035328e-03</internalNodes>
          <leafValues>
            3.8298848271369934e-01 -1.1360102146863937e-01</leafValues></_>
        <_>
          <internalNodes>
            0 -1 842 -6.4455084502696991e-03</internalNodes>
          <leafValues>
            2.7780503034591675e-01 -1.8270848691463470e-01</leafValues></_>
        <_>
          <internalNodes>
            0 -1 857 -2.2860690951347351e-03</internalNodes>
          <leafValues>
            -5.8048003911972046e-01 7.2062835097312927e-02</leafValues></_>
        <_>
          <internalNodes>
            0 -1 373 1.9176220893859863e-01</internalNodes>
          <leafValues>
            -6.1316061764955521e-02 8.0191004276275635e-01</leafValues></_>
        <_>
          <internalNodes>
            0 -1 843 -8.8899731636047363e-03</internalNodes>
          <leafValues>
            4.4612437486648560e-01 -8.0555804073810577e-02</leafValues></_>
        <_>
          <internalNodes>
            0 -1 548 -9.2862255405634642e-04</internalNodes>
          <leafValues>
            -2.7741754055023193e-01 1.4648911356925964e-01</leafValues></_>
        <_>
          <internalNodes>
            0 -1 253 -2.1570804528892040e-03</internalNodes>
          <leafValues>
            -2.7418023347854614e-01 1.3637351989746094e-01</leafValues></_>
        <_>
          <internalNodes>
            0 -1 83 2.4272292852401733e-02</internalNodes>
          <leafValues>
            -8.0784425139427185e-02 5.5304121971130371e-01</leafValues></_>
        <_>
          <internalNodes>
            0 -1 209 -1.3281298801302910e-02</internalNodes>
          <leafValues>
            4.6649312973022461e-01 -6.9858171045780182e-02</leafValues></_>
        <_>
          <internalNodes>
            0 -1 151 -9.7187645733356476e-03</internalNodes>
          <leafValues>
            -6.8044877052307129e-01 5.8479603379964828e-02</leafValues></_>
        <_>
          <internalNodes>
            0 -1 633 -1.2871861457824707e-02</internalNodes>
          <leafValues>
            1.8256099522113800e-01 -2.0809803903102875e-01</leafValues></_>
        <_>
          <internalNodes>
            0 -1 696 -4.6501271426677704e-03</internalNodes>
          <leafValues>
            3.2463145256042480e-01 -1.4373365044593811e-01</leafValues></_>
        <_>
          <internalNodes>
            0 -1 851 -2.2200406529009342e-03</internalNodes>
          <leafValues>
            -5.1717799901962280e-01 8.0182425677776337e-02</leafValues></_>
        <_>
          <internalNodes>
            0 -1 535 -5.2398135885596275e-03</internalNodes>
          <leafValues>
            3.4257379174232483e-01 -1.3050000369548798e-01</leafValues></_>
        <_>
          <internalNodes>
            0 -1 694 1.6470406204462051e-02</internalNodes>
          <leafValues>
            -7.5436234474182129e-02 4.8127633333206177e-01</leafValues></_>
        <_>
          <internalNodes>
            0 -1 532 2.5667671114206314e-02</internalNodes>
          <leafValues>
            -5.8173015713691711e-02 5.8529710769653320e-01</leafValues></_></weakClassifiers></_>
    <!-- stage 5 -->
    <_>
      <maxWeakCount>51</maxWeakCount>
      <stageThreshold>-1.4470558166503906e+00</stageThreshold>
      <weakClassifiers>
        <_>
          <internalNodes>
            0 -1 544 -6.4642243087291718e-03</internalNodes>
          <leafValues>
            2.1791951358318329e-01 -3.6379250884056091e-01</leafValues></_>
        <_>
          <internalNodes>
            0 -1 801 5.2925841882824898e-03</internalNodes>
          <leafValues>
            -2.2187982499599457e-01 2.7315688133239746e-01</leafValues></_>
        <_>
          <internalNodes>
            0 -1 313 -6.5323938615620136e-03</internalNodes>
          <leafValues>
            1.7627586424350739e-01 -2.9536971449851990e-01</leafValues></_>
        <_>
          <internalNodes>
            0 -1 639 -7.6429117470979691e-03</internalNodes>
          <leafValues>
            2.8986918926239014e-01 -1.9140543043613434e-01</leafValues></_>
        <_>
          <internalNodes>
            0 -1 36 -3.5355478525161743e-02</internalNodes>
          <leafValues>
            4.5937496423721313e-01 -6.1487790197134018e-02</leafValues></_>
        <_>
          <internalNodes>
            0 -1 5 3.7307971715927124e-01</internalNodes>
          <leafValues>
            -1.2702341377735138e-01 3.7750700116157532e-01</leafValues></_>
        <_>
          <internalNodes>
            0 -1 86 -1.3819013535976410e-01</internalNodes>
          <leafValues>
            3.4152176976203918e-01 -1.5521211922168732e-01</leafValues></_>
        <_>
          <internalNodes>
            0 -1 496 -1.3186854775995016e-03</internalNodes>
          <leafValues>
            2.8612217307090759e-01 -1.4193195104598999e-01</leafValues></_>
        <_>
          <internalNodes>
            0 -1 376 9.6296239644289017e-03</internalNodes>
          <leafValues>
            8.9393742382526398e-02 -6.8933546543121338e-01</leafValues></_>
        <_>
          <internalNodes>
            0 -1 846 -1.1995612643659115e-02</internalNodes>
          <leafValues>
            4.0835502743721008e-01 -1.0642162710428238e-01</leafValues></_>
        <_>
          <internalNodes>
            0 -1 902 2.0789983682334423e-03</internalNodes>
          <leafValues>
            -9.1603137552738190e-02 3.6695140600204468e-01</leafValues></_>
        <_>
          <internalNodes>
            0 -1 677 1.1212274432182312e-02</internalNodes>
          <leafValues>
            -2.0950432121753693e-01 1.7560347914695740e-01</leafValues></_>
        <_>
          <internalNodes>
            0 -1 883 -1.5356882940977812e-03</internalNodes>
          <leafValues>
            -4.0848401188850403e-01 9.3450412154197693e-02</leafValues></_>
        <_>
          <internalNodes>
            0 -1 700 -5.4928800091147423e-03</internalNodes>
          <leafValues>
            2.2493574023246765e-01 -1.5240536630153656e-01</leafValues></_>
        <_>
          <internalNodes>
            0 -1 115 1.2037407141178846e-03</internalNodes>
          <leafValues>
            5.3876120597124100e-02 -4.4833439588546753e-01</leafValues></_>
        <_>
          <internalNodes>
            0 -1 758 -4.6206200495362282e-03</internalNodes>
          <leafValues>
            5.1961159706115723e-01 -5.9608191251754761e-02</leafValues></_>
        <_>
          <internalNodes>
            0 -1 716 -6.5847544465214014e-04</internalNodes>
          <leafValues>
            -4.9972125887870789e-01 6.9639995694160461e-02</leafValues></_>
        <_>
          <internalNodes>
            0 -1 116 -1.7282408662140369e-03</internalNodes>
          <leafValues>
            -4.3720397353172302e-01 7.0495754480361938e-02</leafValues></_>
        <_>
          <internalNodes>
            0 -1 164 -2.0972946658730507e-03</internalNodes>
          <leafValues>
            3.5469463467597961e-01 -1.0611402988433838e-01</leafValues></_>
        <_>
          <internalNodes>
            0 -1 29 1.0417828336358070e-02</internalNodes>
          <leafValues>
            -1.1843209713697433e-01 2.5744277238845825e-01</leafValues></_>
        <_>
          <internalNodes>
            0 -1 271 -6.6826627589762211e-03</internalNodes>
          <leafValues>
            3.1369012594223022e-01 -1.0958220064640045e-01</leafValues></_>
        <_>
          <internalNodes>
            0 -1 159 -2.2891625761985779e-02</internalNodes>
          <leafValues>
            6.0557395219802856e-01 -5.3856536746025085e-02</leafValues></_>
        <_>
          <internalNodes>
            0 -1 180 8.6514605209231377e-04</internalNodes>
          <leafValues>
            -1.6777573525905609e-01 1.8770980834960938e-01</leafValues></_>
        <_>
          <internalNodes>
            0 -1 698 1.0162416845560074e-02</internalNodes>
          <leafValues>
            8.3084799349308014e-02 -3.7405353784561157e-01</leafValues></_>
        <_>
          <internalNodes>
            0 -1 426 -1.1539913248270750e-03</internalNodes>
          <leafValues>
            -2.4826712906360626e-01 1.1030470579862595e-01</leafValues></_>
        <_>
          <internalNodes>
            0 -1 622 -2.4409644305706024e-02</internalNodes>
          <leafValues>
            -7.4888783693313599e-01 3.6590032279491425e-02</leafValues></_>
        <_>
          <internalNodes>
            0 -1 127 1.0458268225193024e-03</internalNodes>
          <leafValues>
            7.8800439834594727e-02 -3.2719233632087708e-01</leafValues></_>
        <_>
          <internalNodes>
            0 -1 593 2.4192892014980316e-02</internalNodes>
          <leafValues>
            -7.3218941688537598e-02 3.7862917780876160e-01</leafValues></_>
        <_>
          <internalNodes>
            0 -1 225 -1.9818028807640076e-01</internalNodes>
          <leafValues>
            -6.5850335359573364e-01 4.9998067319393158e-02</leafValues></_>
        <_>
          <internalNodes>
            0 -1 322 -3.5747136920690536e-02</internalNodes>
          <leafValues>
            2.3578649759292603e-01 -1.2819802761077881e-01</leafValues></_>
        <_>
          <internalNodes>
            0 -1 569 1.2386014685034752e-02</internalNodes>
          <leafValues>
            -1.1531721800565720e-01 2.8199738264083862e-01</leafValues></_>
        <_>
          <internalNodes>
            0 -1 831 2.0622728392481804e-02</internalNodes>
          <leafValues>
            -6.0614928603172302e-02 4.8079201579093933e-01</leafValues></_>
        <_>
          <internalNodes>
            0 -1 823 7.7342037111520767e-03</internalNodes>
          <leafValues>
            4.2255260050296783e-02 -6.9499748945236206e-01</leafValues></_>
        <_>
          <internalNodes>
            0 -1 859 -8.6747971363365650e-04</internalNodes>
          <leafValues>
            1.6090692579746246e-01 -1.8732449412345886e-01</leafValues></_>
        <_>
          <internalNodes>
            0 -1 854 6.6283703781664371e-03</internalNodes>
          <leafValues>
            3.7991676479578018e-02 -7.0482558012008667e-01</leafValues></_>
        <_>
          <internalNodes>
            0 -1 927 2.0493194460868835e-03</internalNodes>
          <leafValues>
            -1.2707836925983429e-01 2.2722980380058289e-01</leafValues></_>
        <_>
          <internalNodes>
            0 -1 129 -2.6672873646020889e-03</internalNodes>
          <leafValues>
            -4.3486839532852173e-01 6.4281314611434937e-02</leafValues></_>
        <_>
          <internalNodes>
            0 -1 177 -1.1733428109437227e-03</internalNodes>
          <leafValues>
            2.2812993824481964e-01 -1.2455440312623978e-01</leafValues></_>
        <_>
          <internalNodes>
            0 -1 82 -2.9409525915980339e-02</internalNodes>
          <leafValues>
            6.4359581470489502e-01 -4.3132260441780090e-02</leafValues></_>
        <_>
          <internalNodes>
            0 -1 595 1.9603896886110306e-02</internalNodes>
          <leafValues>
            -4.3242294341325760e-02 5.4543209075927734e-01</leafValues></_>
        <_>
          <internalNodes>
            0 -1 297 1.0487290099263191e-02</internalNodes>
          <leafValues>
            4.5710649341344833e-02 -6.6962283849716187e-01</leafValues></_>
        <_>
          <internalNodes>
            0 -1 68 9.2880222946405411e-03</internalNodes>
          <leafValues>
            -1.5337011218070984e-01 1.9154256582260132e-01</leafValues></_>
        <_>
          <internalNodes>
            0 -1 138 7.4307620525360107e-04</internalNodes>
          <leafValues>
            9.4406872987747192e-02 -2.8983631730079651e-01</leafValues></_>
        <_>
          <internalNodes>
            0 -1 647 -4.8516198992729187e-02</internalNodes>
          <leafValues>
            6.6058826446533203e-01 -4.3673414736986160e-02</leafValues></_>
        <_>
          <internalNodes>
            0 -1 381 -4.9168979749083519e-03</internalNodes>
          <leafValues>
            -3.3521863818168640e-01 9.1860912740230560e-02</leafValues></_>
        <_>
          <internalNodes>
            0 -1 611 -2.5942355394363403e-02</internalNodes>
          <leafValues>
            4.4194138050079346e-01 -6.8394593894481659e-02</leafValues></_>
        <_>
          <internalNodes>
            0 -1 527 -3.5312294960021973e-02</internalNodes>
          <leafValues>
            4.7677192091941833e-01 -5.8219060301780701e-02</leafValues></_>
        <_>
          <internalNodes>
            0 -1 780 7.3175966739654541e-02</internalNodes>
          <leafValues>
            -9.2331543564796448e-02 2.8506320714950562e-01</leafValues></_>
        <_>
          <internalNodes>
            0 -1 838 -1.5409620478749275e-02</internalNodes>
          <leafValues>
            2.1933093667030334e-01 -1.3537198305130005e-01</leafValues></_>
        <_>
          <internalNodes>
            0 -1 787 -7.5471654534339905e-02</internalNodes>
          <leafValues>
            -7.1096587181091309e-01 3.6303307861089706e-02</leafValues></_>
        <_>
          <internalNodes>
            0 -1 335 5.2109630778431892e-03</internalNodes>
          <leafValues>
            1.1440414190292358e-01 -2.3778986930847168e-01</leafValues></_></weakClassifiers></_>
    <!-- stage 6 -->
    <_>
      <maxWeakCount>47</maxWeakCount>
      <stageThreshold>-1.2393794059753418e+00</stageThreshold>
      <weakClassifiers>
        <_>
          <internalNodes>
            0 -1 124 -8.4850378334522247e-03</internalNodes>
          <leafValues>
            2.0485584437847137e-01 -3.5807558894157410e-01</leafValues></_>
        <_>
          <internalNodes>
            0 -1 773 -1.2820854317396879e-03</internalNodes>
          <leafValues>
            2.6933789253234863e-01 -2.2306370735168457e-01</leafValues></_>
        <_>
          <internalNodes>
            0 -1 621 9.3715526163578033e-03</internalNodes>
          <leafValues>
            -1.8075288832187653e-01 2.8408655524253845e-01</leafValues></_>
        <_>
          <internalNodes>
            0 -1 541 -4.9387942999601364e-04</internalNodes>
          <leafValues>
            -5.3792726993560791e-01 8.0247499048709869e-02</leafValues></_>
        <_>
          <internalNodes>
            0 -1 586 -1.0411519557237625e-02</internalNodes>
          <leafValues>
            5.1532840728759766e-01 -1.0634466260671616e-01</leafValues></_>
        <_>
          <internalNodes>
            0 -1 430 2.4838455021381378e-02</internalNodes>
          <leafValues>
            1.6265185177326202e-01 -3.0711627006530762e-01</leafValues></_>
        <_>
          <internalNodes>
            0 -1 21 2.8439853340387344e-02</internalNodes>
          <leafValues>
            -1.8595787882804871e-01 2.2401614487171173e-01</leafValues></_>
        <_>
          <internalNodes>
            0 -1 224 8.0381650477647781e-03</internalNodes>
          <leafValues>
            8.3398826420307159e-02 -3.9163386821746826e-01</leafValues></_>
        <_>
          <internalNodes>
            0 -1 591 -3.6050858907401562e-03</internalNodes>
          <leafValues>
            2.5042456388473511e-01 -1.4503252506256104e-01</leafValues></_>
        <_>
          <internalNodes>
            0 -1 754 -2.6461480185389519e-02</internalNodes>
          <leafValues>
            5.8816534280776978e-01 -6.0752648860216141e-02</leafValues></_>
        <_>
          <internalNodes>
            0 -1 902 -4.0730489417910576e-03</internalNodes>
          <leafValues>
            4.7448185086250305e-01 -6.8053275346755981e-02</leafValues></_>
        <_>
          <internalNodes>
            0 -1 334 9.7635313868522644e-03</internalNodes>
          <leafValues>
            4.6910066157579422e-02 -7.5641345977783203e-01</leafValues></_>
        <_>
          <internalNodes>
            0 -1 785 -5.8657608926296234e-02</internalNodes>
          <leafValues>
            2.5637698173522949e-01 -1.3781967759132385e-01</leafValues></_>
        <_>
          <internalNodes>
            0 -1 893 1.7993900924921036e-02</internalNodes>
          <leafValues>
            -1.1442453414201736e-01 3.0732715129852295e-01</leafValues></_>
        <_>
          <internalNodes>
            0 -1 748 4.6418356942012906e-04</internalNodes>
          <leafValues>
            8.5621364414691925e-02 -4.6101969480514526e-01</leafValues></_>
        <_>
          <internalNodes>
            0 -1 624 3.2300546765327454e-02</internalNodes>
          <leafValues>
            5.7074911892414093e-02 -4.5904764533042908e-01</leafValues></_>
        <_>
          <internalNodes>
            0 -1 717 4.2101847939193249e-03</internalNodes>
          <leafValues>
            -8.5729293525218964e-02 3.8429957628250122e-01</leafValues></_>
        <_>
          <internalNodes>
            0 -1 408 -6.5058637410402298e-03</internalNodes>
          <leafValues>
            1.3848564028739929e-01 -2.2570675611495972e-01</leafValues></_>
        <_>
          <internalNodes>
            0 -1 568 6.0289832763373852e-03</internalNodes>
          <leafValues>
            5.9424247592687607e-02 -6.5559285879135132e-01</leafValues></_>
        <_>
          <internalNodes>
            0 -1 703 1.7108373343944550e-02</internalNodes>
          <leafValues>
            -9.2240676283836365e-02 4.2733192443847656e-01</leafValues></_>
        <_>
          <internalNodes>
            0 -1 921 -1.6266347374767065e-03</internalNodes>
          <leafValues>
            -4.9534529447555542e-01 6.3412539660930634e-02</leafValues></_>
        <_>
          <internalNodes>
            0 -1 752 -3.7323177093639970e-04</internalNodes>
          <leafValues>
            -3.7671625614166260e-01 7.1860738098621368e-02</leafValues></_>
        <_>
          <internalNodes>
            0 -1 607 -6.3614025712013245e-03</internalNodes>
          <leafValues>
            3.2095929980278015e-01 -9.6046507358551025e-02</leafValues></_>
        <_>
          <internalNodes>
            0 -1 59 3.6399927921593189e-03</internalNodes>
          <leafValues>
            -1.6724358499050140e-01 1.7286804318428040e-01</leafValues></_>
        <_>
          <internalNodes>
            0 -1 53 -4.0373578667640686e-03</internalNodes>
          <leafValues>
            2.1309497952461243e-01 -1.4100049436092377e-01</leafValues></_>
        <_>
          <internalNodes>
            0 -1 123 -4.5341611839830875e-03</internalNodes>
          <leafValues>
            2.8745916485786438e-01 -1.1375187337398529e-01</leafValues></_>
        <_>
          <internalNodes>
            0 -1 560 -6.5206363797187805e-02</internalNodes>
          <leafValues>
            2.3966747522354126e-01 -1.1464738100767136e-01</leafValues></_>
        <_>
          <internalNodes>
            0 -1 755 1.5126068145036697e-02</internalNodes>
          <leafValues>
            -8.5399977862834930e-02 3.6457177996635437e-01</leafValues></_>
        <_>
          <internalNodes>
            0 -1 531 -2.6276320219039917e-02</internalNodes>
          <leafValues>
            4.2016321420669556e-01 -6.5663419663906097e-02</leafValues></_>
        <_>
          <internalNodes>
            0 -1 445 6.9966763257980347e-03</internalNodes>
          <leafValues>
            5.8396946638822556e-02 -4.9089515209197998e-01</leafValues></_>
        <_>
          <internalNodes>
            0 -1 229 2.3429733118973672e-04</internalNodes>
          <leafValues>
            9.3658827245235443e-02 -2.7479809522628784e-01</leafValues></_>
        <_>
          <internalNodes>
            0 -1 799 7.7011603862047195e-03</internalNodes>
          <leafValues>
            4.4176552444696426e-02 -5.7206314802169800e-01</leafValues></_>
        <_>
          <internalNodes>
            0 -1 438 -5.8038802817463875e-03</internalNodes>
          <leafValues>
            3.4193110466003418e-01 -8.8880665600299835e-02</leafValues></_>
        <_>
          <internalNodes>
            0 -1 473 2.3628830909729004e-02</internalNodes>
          <leafValues>
            9.1671220958232880e-02 -3.3322015404701233e-01</leafValues></_>
        <_>
          <internalNodes>
            0 -1 295 -1.1883456259965897e-02</internalNodes>
          <leafValues>
            -3.2730948925018311e-01 8.2606621086597443e-02</leafValues></_>
        <_>
          <internalNodes>
            0 -1 434 4.5382482931017876e-03</internalNodes>
          <leafValues>
            -1.1572135239839554e-01 2.5763204693794250e-01</leafValues></_>
        <_>
          <internalNodes>
            0 -1 941 9.6362485783174634e-04</internalNodes>
          <leafValues>
            6.3862144947052002e-02 -4.3333902955055237e-01</leafValues></_>
        <_>
          <internalNodes>
            0 -1 391 -5.4836214985698462e-04</internalNodes>
          <leafValues>
            -2.7115619182586670e-01 9.8877206444740295e-02</leafValues></_>
        <_>
          <internalNodes>
            0 -1 248 -3.4263864159584045e-02</internalNodes>
          <leafValues>
            3.3166071772575378e-01 -9.4223558902740479e-02</leafValues></_>
        <_>
          <internalNodes>
            0 -1 769 1.1522719432832673e-04</internalNodes>
          <leafValues>
            -1.9881495833396912e-01 1.5844252705574036e-01</leafValues></_>
        <_>
          <internalNodes>
            0 -1 658 -1.2165290172561072e-05</internalNodes>
          <leafValues>
            1.7817512154579163e-01 -1.6210523247718811e-01</leafValues></_>
        <_>
          <internalNodes>
            0 -1 9 1.0128295421600342e-01</internalNodes>
          <leafValues>
            -1.1586157977581024e-01 2.4291813373565674e-01</leafValues></_>
        <_>
          <internalNodes>
            0 -1 38 -5.4039224050939083e-03</internalNodes>
          <leafValues>
            3.3755570650100708e-01 -8.9823745191097260e-02</leafValues></_>
        <_>
          <internalNodes>
            0 -1 567 -1.8754685297608376e-03</internalNodes>
          <leafValues>
            -3.8496670126914978e-01 8.2498297095298767e-02</leafValues></_>
        <_>
          <internalNodes>
            0 -1 90 -1.1625587940216064e-02</internalNodes>
          <leafValues>
            -6.2755763530731201e-01 3.6904271692037582e-02</leafValues></_>
        <_>
          <internalNodes>
            0 -1 866 -4.2429801076650620e-02</internalNodes>
          <leafValues>
            -7.0470291376113892e-01 3.1960517168045044e-02</leafValues></_>
        <_>
          <internalNodes>
            0 -1 114 6.2621235847473145e-03</internalNodes>
          <leafValues>
            -1.0766839981079102e-01 2.5830966234207153e-01</leafValues></_></weakClassifiers></_>
    <!-- stage 7 -->
    <_>
      <maxWeakCount>57</maxWeakCount>
      <stageThreshold>-1.4444072246551514e+00</stageThreshold>
      <weakClassifiers>
        <_>
          <internalNodes>
            0 -1 485 -7.5909346342086792e-03</internalNodes>
          <leafValues>
            2.4414062500000000e-01 -3.1897628307342529e-01</leafValues></_>
        <_>
          <internalNodes>
            0 -1 878 1.6062392387539148e-03</internalNodes>
          <leafValues>
            -1.7408461868762970e-01 3.0016994476318359e-01</leafValues></_>
        <_>
          <internalNodes>
            0 -1 910 -1.9021651241928339e-03</internalNodes>
          <leafValues>
            3.8452291488647461e-01 -1.4767514169216156e-01</leafValues></_>
        <_>
          <internalNodes>
            0 -1 389 9.7390905022621155e-02</internalNodes>
          <leafValues>
            -8.7171092629432678e-02 3.4750065207481384e-01</leafValues></_>
        <_>
          <internalNodes>
            0 -1 145 -8.3233736455440521e-02</internalNodes>
          <leafValues>
            4.0770837664604187e-01 -1.5025199949741364e-01</leafValues></_>
        <_>
          <internalNodes>
            0 -1 214 5.6921035051345825e-02</internalNodes>
          <leafValues>
            -9.9855996668338776e-02 3.5752287507057190e-01</leafValues></_>
        <_>
          <internalNodes>
            0 -1 52 -1.0208178311586380e-02</internalNodes>
          <leafValues>
            2.5767645239830017e-01 -1.5026983618736267e-01</leafValues></_>
        <_>
          <internalNodes>
            0 -1 821 3.7230523303151131e-03</internalNodes>
          <leafValues>
            5.5393807590007782e-02 -7.0067423582077026e-01</leafValues></_>
        <_>
          <internalNodes>
            0 -1 403 5.3301025182008743e-03</internalNodes>
          <leafValues>
            -1.2765154242515564e-01 2.6212930679321289e-01</leafValues></_>
        <_>
          <internalNodes>
            0 -1 500 -2.1547127515077591e-02</internalNodes>
          <leafValues>
            2.3829479515552521e-01 -1.2525306642055511e-01</leafValues></_>
        <_>
          <internalNodes>
            0 -1 453 -5.8090151287615299e-03</internalNodes>
          <leafValues>
            3.6781457066535950e-01 -1.1349189281463623e-01</leafValues></_>
        <_>
          <internalNodes>
            0 -1 261 2.9917843639850616e-03</internalNodes>
          <leafValues>
            8.3579517900943756e-02 -5.8904105424880981e-01</leafValues></_>
        <_>
          <internalNodes>
            0 -1 833 -1.2322873808443546e-02</internalNodes>
          <leafValues>
            4.5761349797248840e-01 -8.6033150553703308e-02</leafValues></_>
        <_>
          <internalNodes>
            0 -1 200 -9.0799611061811447e-03</internalNodes>
          <leafValues>
            2.1954172849655151e-01 -1.4199413359165192e-01</leafValues></_>
        <_>
          <internalNodes>
            0 -1 836 1.9624084234237671e-03</internalNodes>
          <leafValues>
            8.3995260298252106e-02 -4.2173802852630615e-01</leafValues></_>
        <_>
          <internalNodes>
            0 -1 632 3.6168813705444336e-02</internalNodes>
          <leafValues>
            3.8341868668794632e-02 -5.7922130823135376e-01</leafValues></_>
        <_>
          <internalNodes>
            0 -1 931 -5.7895469944924116e-04</internalNodes>
          <leafValues>
            2.6812109351158142e-01 -1.2034243345260620e-01</leafValues></_>
        <_>
          <internalNodes>
            0 -1 810 8.7701324373483658e-03</internalNodes>
          <leafValues>
            8.0352544784545898e-02 -3.6987152695655823e-01</leafValues></_>
        <_>
          <internalNodes>
            0 -1 604 -2.3296292871236801e-02</internalNodes>
          <leafValues>
            4.3368795514106750e-01 -7.3135085403919220e-02</leafValues></_>
        <_>
          <internalNodes>
            0 -1 634 -5.0423657521605492e-03</internalNodes>
          <leafValues>
            1.5779641270637512e-01 -2.0132559537887573e-01</leafValues></_>
        <_>
          <internalNodes>
            0 -1 791 2.1602315828204155e-03</internalNodes>
          <leafValues>
            -6.3575945794582367e-02 4.3777611851692200e-01</leafValues></_>
        <_>
          <internalNodes>
            0 -1 653 1.0946393013000488e-03</internalNodes>
          <leafValues>
            8.3969727158546448e-02 -3.5474956035614014e-01</leafValues></_>
        <_>
          <internalNodes>
            0 -1 54 1.0050490964204073e-03</internalNodes>
          <leafValues>
            1.0785663127899170e-01 -2.7804902195930481e-01</leafValues></_>
        <_>
          <internalNodes>
            0 -1 294 -1.2364150024950504e-03</internalNodes>
          <leafValues>
            1.9293984770774841e-01 -1.5350191295146942e-01</leafValues></_>
        <_>
          <internalNodes>
            0 -1 342 -2.3426013067364693e-03</internalNodes>
          <leafValues>
            -4.5806020498275757e-01 6.5208673477172852e-02</leafValues></_>
        <_>
          <internalNodes>
            0 -1 257 9.9534690380096436e-03</internalNodes>
          <leafValues>
            -6.1682451516389847e-02 5.0987648963928223e-01</leafValues></_>
        <_>
          <internalNodes>
            0 -1 71 2.7565598487854004e-02</internalNodes>
          <leafValues>
            8.7113037705421448e-02 -3.2406324148178101e-01</leafValues></_>
        <_>
          <internalNodes>
            0 -1 130 -5.6665763258934021e-02</internalNodes>
          <leafValues>
            -6.6346698999404907e-01 3.8401324301958084e-02</leafValues></_>
        <_>
          <internalNodes>
            0 -1 20 1.0094463825225830e-01</internalNodes>
          <leafValues>
            6.1162430793046951e-02 -4.3994519114494324e-01</leafValues></_>
        <_>
          <internalNodes>
            0 -1 8 -1.5697264671325684e-01</internalNodes>
          <leafValues>
            -5.3049594163894653e-01 5.6342463940382004e-02</leafValues></_>
        <_>
          <internalNodes>
            0 -1 252 1.1615077033638954e-02</internalNodes>
          <leafValues>
            2.5803325697779655e-02 -8.7665295600891113e-01</leafValues></_>
        <_>
          <internalNodes>
            0 -1 805 1.9546620547771454e-02</internalNodes>
          <leafValues>
            2.2761270403862000e-02 -7.8321313858032227e-01</leafValues></_>
        <_>
          <internalNodes>
            0 -1 338 -2.8705713339149952e-03</internalNodes>
          <leafValues>
            -2.2397460043430328e-01 1.1435282230377197e-01</leafValues></_>
        <_>
          <internalNodes>
            0 -1 234 -1.9648160785436630e-02</internalNodes>
          <leafValues>
            2.6840266585350037e-01 -1.2118484824895859e-01</leafValues></_>
        <_>
          <internalNodes>
            0 -1 107 -4.3880427256226540e-03</internalNodes>
          <leafValues>
            3.5194858908653259e-01 -7.7762827277183533e-02</leafValues></_>
        <_>
          <internalNodes>
            0 -1 136 1.9240522524341941e-03</internalNodes>
          <leafValues>
            -1.6003848612308502e-01 1.6367931663990021e-01</leafValues></_>
        <_>
          <internalNodes>
            0 -1 830 -6.0977111570537090e-03</internalNodes>
          <leafValues>
            -5.7355523109436035e-01 5.0355620682239532e-02</leafValues></_>
        <_>
          <internalNodes>
            0 -1 300 -1.2792909517884254e-02</internalNodes>
          <leafValues>
            2.4865327775478363e-01 -1.1412249505519867e-01</leafValues></_>
        <_>
          <internalNodes>
            0 -1 824 -3.1363370362669230e-04</internalNodes>
          <leafValues>
            -2.3300154507160187e-01 1.1462663859128952e-01</leafValues></_>
        <_>
          <internalNodes>
            0 -1 583 2.8340118005871773e-03</internalNodes>
          <leafValues>
            9.4294920563697815e-02 -2.7241325378417969e-01</leafValues></_>
        <_>
          <internalNodes>
            0 -1 439 -3.1184630468487740e-02</internalNodes>
          <leafValues>
            3.0137690901756287e-01 -9.1138504445552826e-02</leafValues></_>
        <_>
          <internalNodes>
            0 -1 341 -7.5970555189996958e-04</internalNodes>
          <leafValues>
            -3.1602111458778381e-01 9.3241386115550995e-02</leafValues></_>
        <_>
          <internalNodes>
            0 -1 298 -6.8406073842197657e-04</internalNodes>
          <leafValues>
            -2.4854370951652527e-01 1.0889810323715210e-01</leafValues></_>
        <_>
          <internalNodes>
            0 -1 645 -5.7809446007013321e-03</internalNodes>
          <leafValues>
            3.0229887366294861e-01 -1.0425023734569550e-01</leafValues></_>
        <_>
          <internalNodes>
            0 -1 901 6.0935545479878783e-04</internalNodes>
          <leafValues>
            9.2680230736732483e-02 -3.0308070778846741e-01</leafValues></_>
        <_>
          <internalNodes>
            0 -1 365 -4.9221627414226532e-03</internalNodes>
          <leafValues>
            3.2841604948043823e-01 -9.1018594801425934e-02</leafValues></_>
        <_>
          <internalNodes>
            0 -1 239 -1.3095512986183167e-03</internalNodes>
          <leafValues>
            -3.6207020282745361e-01 7.5936935842037201e-02</leafValues></_>
        <_>
          <internalNodes>
            0 -1 425 -6.4137652516365051e-02</internalNodes>
          <leafValues>
            -4.1755095124244690e-01 6.2792770564556122e-02</leafValues></_>
        <_>
          <internalNodes>
            0 -1 655 5.2107017487287521e-02</internalNodes>
          <leafValues>
            2.4455787613987923e-02 -9.6960645914077759e-01</leafValues></_>
        <_>
          <internalNodes>
            0 -1 113 7.0726475678384304e-03</internalNodes>
          <leafValues>
            -8.3040393888950348e-02 3.4096425771713257e-01</leafValues></_>
        <_>
          <internalNodes>
            0 -1 400 3.3785938285291195e-04</internalNodes>
          <leafValues>
            9.5845222473144531e-02 -2.7771154046058655e-01</leafValues></_>
        <_>
          <internalNodes>
            0 -1 231 -1.8590363860130310e-01</internalNodes>
          <leafValues>
            -9.1988104581832886e-01 2.2749945521354675e-02</leafValues></_>
        <_>
          <internalNodes>
            0 -1 314 2.0973857492208481e-02</internalNodes>
          <leafValues>
            2.6186289265751839e-02 -7.1057128906250000e-01</leafValues></_>
        <_>
          <internalNodes>
            0 -1 427 6.0894945636391640e-03</internalNodes>
          <leafValues>
            -1.2898929417133331e-01 1.8595615029335022e-01</leafValues></_>
        <_>
          <internalNodes>
            0 -1 520 -2.1137720905244350e-03</internalNodes>
          <leafValues>
            -3.4497717022895813e-01 7.0231720805168152e-02</leafValues></_>
        <_>
          <internalNodes>
            0 -1 601 -2.6741186156868935e-03</internalNodes>
          <leafValues>
            2.2354778647422791e-01 -1.0826677829027176e-01</leafValues></_>
        <_>
          <internalNodes>
            0 -1 281 -1.9470085389912128e-03</internalNodes>
          <leafValues>
            -2.4922171235084534e-01 1.1250654608011246e-01</leafValues></_></weakClassifiers></_>
    <!-- stage 8 -->
    <_>
      <maxWeakCount>49</maxWeakCount>
      <stageThreshold>-1.3096913099288940e+00</stageThreshold>
      <weakClassifiers>
        <_>
          <internalNodes>
            0 -1 735 -1.0032561607658863e-02</internalNodes>
          <leafValues>
            3.9766082167625427e-01 -2.9458239674568176e-01</leafValues></_>
        <_>
          <internalNodes>
            0 -1 582 1.5720758587121964e-02</internalNodes>
          <leafValues>
            -1.8155188858509064e-01 3.3698946237564087e-01</leafValues></_>
        <_>
          <internalNodes>
            0 -1 18 -1.9851338118314743e-02</internalNodes>
          <leafValues>
            2.0865684747695923e-01 -2.4974320828914642e-01</leafValues></_>
        <_>
          <internalNodes>
            0 -1 906 -1.1105231242254376e-03</internalNodes>
          <leafValues>
            3.3644214272499084e-01 -1.3117073476314545e-01</leafValues></_>
        <_>
          <internalNodes>
            0 -1 299 -1.4860359951853752e-03</internalNodes>
          <leafValues>
            2.5137469172477722e-01 -1.7530067265033722e-01</leafValues></_>
        <_>
          <internalNodes>
            0 -1 119 -2.1087103523313999e-03</internalNodes>
          <leafValues>
            -4.4001844525337219e-01 6.5805688500404358e-02</leafValues></_>
        <_>
          <internalNodes>
            0 -1 932 1.1899755336344242e-03</internalNodes>
          <leafValues>
            -9.1933853924274445e-02 3.2581803202629089e-01</leafValues></_>
        <_>
          <internalNodes>
            0 -1 916 -3.0223657377064228e-03</internalNodes>
          <leafValues>
            2.4749167263507843e-01 -1.4344701170921326e-01</leafValues></_>
        <_>
          <internalNodes>
            0 -1 871 4.7329990193247795e-03</internalNodes>
          <leafValues>
            8.1011310219764709e-02 -5.3733956813812256e-01</leafValues></_>
        <_>
          <internalNodes>
            0 -1 217 7.3451539501547813e-03</internalNodes>
          <leafValues>
            -1.0137754678726196e-01 4.3725413084030151e-01</leafValues></_>
        <_>
          <internalNodes>
            0 -1 321 3.5956152714788914e-03</internalNodes>
          <leafValues>
            1.3597239553928375e-01 -2.7639997005462646e-01</leafValues></_>
        <_>
          <internalNodes>
            0 -1 165 7.4832793325185776e-03</internalNodes>
          <leafValues>
            -7.2792917490005493e-02 5.5834549665451050e-01</leafValues></_>
        <_>
          <internalNodes>
            0 -1 88 1.8074801564216614e-01</internalNodes>
          <leafValues>
            -6.1932254582643509e-02 4.7094357013702393e-01</leafValues></_>
        <_>
          <internalNodes>
            0 -1 213 -1.0582491755485535e-02</internalNodes>
          <leafValues>
            2.2068417072296143e-01 -1.5755438804626465e-01</leafValues></_>
        <_>
          <internalNodes>
            0 -1 101 3.7602707743644714e-01</internalNodes>
          <leafValues>
            -2.6188142597675323e-02 9.0564501285552979e-01</leafValues></_>
        <_>
          <internalNodes>
            0 -1 679 6.0634259134531021e-03</internalNodes>
          <leafValues>
            -7.4445270001888275e-02 4.3034663796424866e-01</leafValues></_>
        <_>
          <internalNodes>
            0 -1 828 -1.1529381386935711e-02</internalNodes>
          <leafValues>
            2.1832911670207977e-01 -1.5320585668087006e-01</leafValues></_>
        <_>
          <internalNodes>
            0 -1 872 -1.0797078721225262e-02</internalNodes>
          <leafValues>
            -8.3186912536621094e-01 3.7348795682191849e-02</leafValues></_>
        <_>
          <internalNodes>
            0 -1 110 -1.3755155960097909e-03</internalNodes>
          <leafValues>
            -3.5162916779518127e-01 7.8173264861106873e-02</leafValues></_>
        <_>
          <internalNodes>
            0 -1 507 -5.9815882705152035e-03</internalNodes>
          <leafValues>
            1.6342468559741974e-01 -1.7354179918766022e-01</leafValues></_>
        <_>
          <internalNodes>
            0 -1 674 -7.6838890090584755e-03</internalNodes>
          <leafValues>
            2.5510331988334656e-01 -1.2418869882822037e-01</leafValues></_>
        <_>
          <internalNodes>
            0 -1 852 1.2344241142272949e-02</internalNodes>
          <leafValues>
            5.2217077463865280e-02 -6.8319594860076904e-01</leafValues></_>
        <_>
          <internalNodes>
            0 -1 626 -4.0882546454668045e-03</internalNodes>
          <leafValues>
            3.4761974215507507e-01 -9.1072887182235718e-02</leafValues></_>
        <_>
          <internalNodes>
            0 -1 643 4.6124206855893135e-03</internalNodes>
          <leafValues>
            -5.3569585084915161e-02 4.7140458226203918e-01</leafValues></_>
        <_>
          <internalNodes>
            0 -1 725 -4.5506311580538750e-03</internalNodes>
          <leafValues>
            1.8333910405635834e-01 -1.6155472397804260e-01</leafValues></_>
        <_>
          <internalNodes>
            0 -1 167 9.0874463785439730e-04</internalNodes>
          <leafValues>
            7.9694606363773346e-02 -3.5445910692214966e-01</leafValues></_>
        <_>
          <internalNodes>
            0 -1 171 -2.7388636954128742e-03</internalNodes>
          <leafValues>
            2.1764926612377167e-01 -1.3928183913230896e-01</leafValues></_>
        <_>
          <internalNodes>
            0 -1 340 -6.2224519206210971e-04</internalNodes>
          <leafValues>
            -2.5514394044876099e-01 1.1892420053482056e-01</leafValues></_>
        <_>
          <internalNodes>
            0 -1 137 -4.6755544841289520e-02</internalNodes>
          <leafValues>
            -3.8010409474372864e-01 7.4674017727375031e-02</leafValues></_>
        <_>
          <internalNodes>
            0 -1 398 1.9693714566528797e-03</internalNodes>
          <leafValues>
            1.5373113751411438e-01 -2.2571238875389099e-01</leafValues></_>
        <_>
          <internalNodes>
            0 -1 775 1.4700894244015217e-03</internalNodes>
          <leafValues>
            -1.0791860520839691e-01 3.1927606463432312e-01</leafValues></_>
        <_>
          <internalNodes>
            0 -1 47 -2.4409177713096142e-03</internalNodes>
          <leafValues>
            -2.6707670092582703e-01 1.0599539428949356e-01</leafValues></_>
        <_>
          <internalNodes>
            0 -1 624 9.7829774022102356e-03</internalNodes>
          <leafValues>
            1.0587445646524429e-01 -2.7171319723129272e-01</leafValues></_>
        <_>
          <internalNodes>
            0 -1 40 -5.6447428651154041e-03</internalNodes>
          <leafValues>
            -4.7125598788261414e-01 6.2951087951660156e-02</leafValues></_>
        <_>
          <internalNodes>
            0 -1 723 -6.4860107377171516e-03</internalNodes>
          <leafValues>
            -6.8229633569717407e-01 3.4975856542587280e-02</leafValues></_>
        <_>
          <internalNodes>
            0 -1 768 -2.2025196813046932e-04</internalNodes>
          <leafValues>
            -2.5313434004783630e-01 1.0959468036890030e-01</leafValues></_>
        <_>
          <internalNodes>
            0 -1 867 -2.1252147853374481e-03</internalNodes>
          <leafValues>
            4.0681686997413635e-01 -6.9216795265674591e-02</leafValues></_>
        <_>
          <internalNodes>
            0 -1 797 4.0962677448987961e-03</internalNodes>
          <leafValues>
            -1.5281668305397034e-01 1.8534831702709198e-01</leafValues></_>
        <_>
          <internalNodes>
            0 -1 662 -4.7556892037391663e-02</internalNodes>
          <leafValues>
            -7.9672420024871826e-01 3.4363493323326111e-02</leafValues></_>
        <_>
          <internalNodes>
            0 -1 1 -1.0899244248867035e-01</internalNodes>
          <leafValues>
            2.5067374110221863e-01 -1.1847980320453644e-01</leafValues></_>
        <_>
          <internalNodes>
            0 -1 503 -8.1615939736366272e-02</internalNodes>
          <leafValues>
            2.4936267733573914e-01 -1.0864847153425217e-01</leafValues></_>
        <_>
          <internalNodes>
            0 -1 919 -3.7706510629504919e-03</internalNodes>
          <leafValues>
            3.8860970735549927e-01 -8.5615605115890503e-02</leafValues></_>
        <_>
          <internalNodes>
            0 -1 328 1.2842513620853424e-02</internalNodes>
          <leafValues>
            1.1649036407470703e-01 -2.4324472248554230e-01</leafValues></_>
        <_>
          <internalNodes>
            0 -1 384 -7.6096788048744202e-02</internalNodes>
          <leafValues>
            -4.7976839542388916e-01 5.7628896087408066e-02</leafValues></_>
        <_>
          <internalNodes>
            0 -1 685 7.2796158492565155e-03</internalNodes>
          <leafValues>
            -1.1797168850898743e-01 2.8941947221755981e-01</leafValues></_>
        <_>
          <internalNodes>
            0 -1 713 -3.2236452680081129e-03</internalNodes>
          <leafValues>
            2.2762979567050934e-01 -1.0798487812280655e-01</leafValues></_>
        <_>
          <internalNodes>
            0 -1 750 6.2357704155147076e-04</internalNodes>
          <leafValues>
            7.5574278831481934e-02 -3.7500038743019104e-01</leafValues></_>
        <_>
          <internalNodes>
            0 -1 726 1.4158537378534675e-03</internalNodes>
          <leafValues>
            -7.3605410754680634e-02 3.7906205654144287e-01</leafValues></_>
        <_>
          <internalNodes>
            0 -1 748 -1.1439165973570198e-04</internalNodes>
          <leafValues>
            -2.4804779887199402e-01 1.0928218811750412e-01</leafValues></_></weakClassifiers></_>
    <!-- stage 9 -->
    <_>
      <maxWeakCount>52</maxWeakCount>
      <stageThreshold>-1.2887662649154663e+00</stageThreshold>
      <weakClassifiers>
        <_>
          <internalNodes>
            0 -1 599 1.4564760029315948e-02</internalNodes>
          <leafValues>
            -4.1531914472579956e-01 1.0862620174884796e-01</leafValues></_>
        <_>
          <internalNodes>
            0 -1 404 4.1853049769997597e-03</internalNodes>
          <leafValues>
            -1.9245961308479309e-01 2.6433143019676208e-01</leafValues></_>
        <_>
          <internalNodes>
            0 -1 848 1.8110515084117651e-03</internalNodes>
          <leafValues>
            -1.7107459902763367e-01 2.6727011799812317e-01</leafValues></_>
        <_>
          <internalNodes>
            0 -1 126 2.3120988626033068e-03</internalNodes>
          <leafValues>
            -8.6301244795322418e-02 4.4931524991989136e-01</leafValues></_>
        <_>
          <internalNodes>
            0 -1 366 -4.7129252925515175e-03</internalNodes>
          <leafValues>
            -5.3782254457473755e-01 6.2706381082534790e-02</leafValues></_>
        <_>
          <internalNodes>
            0 -1 600 -5.4402388632297516e-02</internalNodes>
          <leafValues>
            -5.3507226705551147e-01 8.5020698606967926e-02</leafValues></_>
        <_>
          <internalNodes>
            0 -1 908 -5.4223160259425640e-04</internalNodes>
          <leafValues>
            2.7214893698692322e-01 -1.2908813357353210e-01</leafValues></_>
        <_>
          <internalNodes>
            0 -1 682 -1.1597168631851673e-02</internalNodes>
          <leafValues>
            2.3530973494052887e-01 -1.4669291675090790e-01</leafValues></_>
        <_>
          <internalNodes>
            0 -1 772 1.9322118023410439e-03</internalNodes>
          <leafValues>
            8.5945621132850647e-02 -4.8089998960494995e-01</leafValues></_>
        <_>
          <internalNodes>
            0 -1 221 1.3918185140937567e-03</internalNodes>
          <leafValues>
            -1.7599804699420929e-01 1.8308933079242706e-01</leafValues></_>
        <_>
          <internalNodes>
            0 -1 251 3.5736612044274807e-03</internalNodes>
          <leafValues>
            -8.2612551748752594e-02 4.1939178109169006e-01</leafValues></_>
        <_>
          <internalNodes>
            0 -1 905 -1.2977307662367821e-02</internalNodes>
          <leafValues>
            -6.0857236385345459e-01 7.3524989187717438e-02</leafValues></_>
        <_>
          <internalNodes>
            0 -1 809 -7.6800463721156120e-03</internalNodes>
          <leafValues>
            4.3801343441009521e-01 -9.8019860684871674e-02</leafValues></_>
        <_>
          <internalNodes>
            0 -1 258 1.5844308072701097e-03</internalNodes>
          <leafValues>
            7.9906448721885681e-02 -4.1131842136383057e-01</leafValues></_>
        <_>
          <internalNodes>
            0 -1 258 -2.1510254591703415e-03</internalNodes>
          <leafValues>
            -5.0358378887176514e-01 6.3007541000843048e-02</leafValues></_>
        <_>
          <internalNodes>
            0 -1 934 1.1214031837880611e-03</internalNodes>
          <leafValues>
            -1.1196888238191605e-01 2.7164107561111450e-01</leafValues></_>
        <_>
          <internalNodes>
            0 -1 881 1.9659900572150946e-03</internalNodes>
          <leafValues>
            7.7950693666934967e-02 -4.5472252368927002e-01</leafValues></_>
        <_>
          <internalNodes>
            0 -1 933 -1.0978580394294113e-04</internalNodes>
          <leafValues>
            1.4584733545780182e-01 -2.0930500328540802e-01</leafValues></_>
        <_>
          <internalNodes>
            0 -1 542 5.4585799807682633e-04</internalNodes>
          <leafValues>
            8.2707755267620087e-02 -2.8810364007949829e-01</leafValues></_>
        <_>
          <internalNodes>
            0 -1 557 -7.9967798665165901e-03</internalNodes>
          <leafValues>
            4.2055261135101318e-01 -6.6513068974018097e-02</leafValues></_>
        <_>
          <internalNodes>
            0 -1 637 -2.3652720265090466e-03</internalNodes>
          <leafValues>
            1.7586115002632141e-01 -1.6471505165100098e-01</leafValues></_>
        <_>
          <internalNodes>
            0 -1 732 -8.4740924648940563e-04</internalNodes>
          <leafValues>
            4.3021032214164734e-01 -6.7342765629291534e-02</leafValues></_>
        <_>
          <internalNodes>
            0 -1 386 -3.2874720636755228e-04</internalNodes>
          <leafValues>
            2.1749076247215271e-01 -1.4704321324825287e-01</leafValues></_>
        <_>
          <internalNodes>
            0 -1 310 -8.2008317112922668e-03</internalNodes>
          <leafValues>
            3.0214157700538635e-01 -8.6446113884449005e-02</leafValues></_>
        <_>
          <internalNodes>
            0 -1 16 6.8069819826632738e-04</internalNodes>
          <leafValues>
            9.5201812684535980e-02 -2.8432855010032654e-01</leafValues></_>
        <_>
          <internalNodes>
            0 -1 31 -1.1679847724735737e-02</internalNodes>
          <leafValues>
            3.9850750565528870e-01 -6.4400188624858856e-02</leafValues></_>
        <_>
          <internalNodes>
            0 -1 32 1.5590381808578968e-03</internalNodes>
          <leafValues>
            -1.2755906581878662e-01 2.2354662418365479e-01</leafValues></_>
        <_>
          <internalNodes>
            0 -1 819 2.2891912609338760e-02</internalNodes>
          <leafValues>
            4.8247519880533218e-02 -5.3246420621871948e-01</leafValues></_>
        <_>
          <internalNodes>
            0 -1 845 -1.3187307864427567e-02</internalNodes>
          <leafValues>
            5.2093422412872314e-01 -5.6409176439046860e-02</leafValues></_>
        <_>
          <internalNodes>
            0 -1 813 -4.9073465168476105e-02</internalNodes>
          <leafValues>
            -5.6330811977386475e-01 5.0556939095258713e-02</leafValues></_>
        <_>
          <internalNodes>
            0 -1 938 1.0930716991424561e-02</internalNodes>
          <leafValues>
            6.3337661325931549e-02 -3.8967373967170715e-01</leafValues></_>
        <_>
          <internalNodes>
            0 -1 263 -5.8790095150470734e-02</internalNodes>
          <leafValues>
            -4.5999825000762939e-01 4.9132637679576874e-02</leafValues></_>
        <_>
          <internalNodes>
            0 -1 273 5.8833856135606766e-02</internalNodes>
          <leafValues>
            3.4693296998739243e-02 -6.7972940206527710e-01</leafValues></_>
        <_>
          <internalNodes>
            0 -1 540 1.3673973269760609e-02</internalNodes>
          <leafValues>
            2.3946188390254974e-02 -8.7222355604171753e-01</leafValues></_>
        <_>
          <internalNodes>
            0 -1 458 -2.6888225227594376e-02</internalNodes>
          <leafValues>
            -7.0870530605316162e-01 2.8884638100862503e-02</leafValues></_>
        <_>
          <internalNodes>
            0 -1 720 -3.0811008065938950e-02</internalNodes>
          <leafValues>
            -5.6082880496978760e-01 3.9971701800823212e-02</leafValues></_>
        <_>
          <internalNodes>
            0 -1 762 -8.3480437751859426e-04</internalNodes>
          <leafValues>
            1.7222000658512115e-01 -1.5031118690967560e-01</leafValues></_>
        <_>
          <internalNodes>
            0 -1 865 4.1726194322109222e-03</internalNodes>
          <leafValues>
            -6.5904006361961365e-02 4.2489910125732422e-01</leafValues></_>
        <_>
          <internalNodes>
            0 -1 488 6.2954574823379517e-03</internalNodes>
          <leafValues>
            7.3741815984249115e-02 -3.8578370213508606e-01</leafValues></_>
        <_>
          <internalNodes>
            0 -1 609 -8.6846947669982910e-03</internalNodes>
          <leafValues>
            2.1583113074302673e-01 -1.2668237090110779e-01</leafValues></_>
        <_>
          <internalNodes>
            0 -1 504 1.0129137081094086e-04</internalNodes>
          <leafValues>
            -1.7268332839012146e-01 1.4613874256610870e-01</leafValues></_>
        <_>
          <internalNodes>
            0 -1 597 -7.8577585518360138e-03</internalNodes>
          <leafValues>
            3.2559630274772644e-01 -7.9609014093875885e-02</leafValues></_>
        <_>
          <internalNodes>
            0 -1 135 3.0467880424112082e-04</internalNodes>
          <leafValues>
            -1.4357301592826843e-01 1.7602089047431946e-01</leafValues></_>
        <_>
          <internalNodes>
            0 -1 648 3.2466626726090908e-03</internalNodes>
          <leafValues>
            -7.3300302028656006e-02 3.8423764705657959e-01</leafValues></_>
        <_>
          <internalNodes>
            0 -1 422 2.4627946317195892e-02</internalNodes>
          <leafValues>
            8.6854770779609680e-02 -3.1074556708335876e-01</leafValues></_>
        <_>
          <internalNodes>
            0 -1 219 1.3812645338475704e-02</internalNodes>
          <leafValues>
            -1.1640074849128723e-01 2.5455665588378906e-01</leafValues></_>
        <_>
          <internalNodes>
            0 -1 459 -8.2736890763044357e-03</internalNodes>
          <leafValues>
            1.3498704135417938e-01 -2.2259113192558289e-01</leafValues></_>
        <_>
          <internalNodes>
            0 -1 95 1.1951984465122223e-01</internalNodes>
          <leafValues>
            4.5214720070362091e-02 -5.9215545654296875e-01</leafValues></_>
        <_>
          <internalNodes>
            0 -1 260 -2.4843425489962101e-03</internalNodes>
          <leafValues>
            -5.8919966220855713e-01 3.7810556590557098e-02</leafValues></_>
        <_>
          <internalNodes>
            0 -1 402 7.5067253783345222e-03</internalNodes>
          <leafValues>
            -6.3798807561397552e-02 3.8400053977966309e-01</leafValues></_>
        <_>
          <internalNodes>
            0 -1 776 -2.9196200193837285e-04</internalNodes>
          <leafValues>
            1.6627350449562073e-01 -1.5900522470474243e-01</leafValues></_>
        <_>
          <internalNodes>
            0 -1 301 4.6943984925746918e-03</internalNodes>
          <leafValues>
            4.3263435363769531e-02 -5.6925868988037109e-01</leafValues></_></weakClassifiers></_>
    <!-- stage 10 -->
    <_>
      <maxWeakCount>59</maxWeakCount>
      <stageThreshold>-1.2223526239395142e+00</stageThreshold>
      <weakClassifiers>
        <_>
          <internalNodes>
            0 -1 629 4.2542275041341782e-03</internalNodes>
          <leafValues>
            -4.0175953507423401e-01 2.2914757952094078e-02</leafValues></_>
        <_>
          <internalNodes>
            0 -1 168 -1.6099570784717798e-03</internalNodes>
          <leafValues>
            2.9226765036582947e-01 -1.4715525507926941e-01</leafValues></_>
        <_>
          <internalNodes>
            0 -1 353 1.9915979355573654e-03</internalNodes>
          <leafValues>
            -1.6649375855922699e-01 2.1364618837833405e-01</leafValues></_>
        <_>
          <internalNodes>
            0 -1 287 -6.4603476785123348e-03</internalNodes>
          <leafValues>
            1.6480334103107452e-01 -1.8565246462821960e-01</leafValues></_>
        <_>
          <internalNodes>
            0 -1 69 3.8954266346991062e-03</internalNodes>
          <leafValues>
            -1.5296868979930878e-01 2.0797410607337952e-01</leafValues></_>
        <_>
          <internalNodes>
            0 -1 409 -5.3699098527431488e-02</internalNodes>
          <leafValues>
            4.4708639383316040e-01 -9.5332249999046326e-02</leafValues></_>
        <_>
          <internalNodes>
            0 -1 23 -1.7131394147872925e-01</internalNodes>
          <leafValues>
            4.3828672170639038e-01 -7.7873080968856812e-02</leafValues></_>
        <_>
          <internalNodes>
            0 -1 244 3.0460622161626816e-02</internalNodes>
          <leafValues>
            9.9929109215736389e-02 -3.5401305556297302e-01</leafValues></_>
        <_>
          <internalNodes>
            0 -1 782 -4.2302940040826797e-02</internalNodes>
          <leafValues>
            -7.2320377826690674e-01 3.7486009299755096e-02</leafValues></_>
        <_>
          <internalNodes>
            0 -1 793 -1.8473392352461815e-02</internalNodes>
          <leafValues>
            1.7191083729267120e-01 -1.6950571537017822e-01</leafValues></_>
        <_>
          <internalNodes>
            0 -1 266 3.3339423680445179e-05</internalNodes>
          <leafValues>
            -1.8003788590431213e-01 1.7114801704883575e-01</leafValues></_>
        <_>
          <internalNodes>
            0 -1 753 -1.1174623668193817e-01</internalNodes>
          <leafValues>
            3.5999006032943726e-01 -7.8266553580760956e-02</leafValues></_>
        <_>
          <internalNodes>
            0 -1 459 8.5469737648963928e-02</internalNodes>
          <leafValues>
            -6.2656119465827942e-02 6.5608251094818115e-01</leafValues></_>
        <_>
          <internalNodes>
            0 -1 675 -4.4199329568073153e-04</internalNodes>
          <leafValues>
            -2.1110507845878601e-01 1.4780847728252411e-01</leafValues></_>
        <_>
          <internalNodes>
            0 -1 907 1.1098417453467846e-03</internalNodes>
          <leafValues>
            -9.8786823451519012e-02 2.9918250441551208e-01</leafValues></_>
        <_>
          <internalNodes>
            0 -1 909 -5.3064140956848860e-04</internalNodes>
          <leafValues>
            3.7493360042572021e-01 -1.0280413180589676e-01</leafValues></_>
        <_>
          <internalNodes>
            0 -1 251 -1.1577096302062273e-03</internalNodes>
          <leafValues>
            2.2062778472900391e-01 -1.1616091430187225e-01</leafValues></_>
        <_>
          <internalNodes>
            0 -1 644 -2.9319006949663162e-02</internalNodes>
          <leafValues>
            4.5719799399375916e-01 -5.9348169714212418e-02</leafValues></_>
        <_>
          <internalNodes>
            0 -1 371 2.4634737521409988e-02</internalNodes>
          <leafValues>
            1.3114790618419647e-01 -2.2343151271343231e-01</leafValues></_>
        <_>
          <internalNodes>
            0 -1 78 3.4698578715324402e-01</internalNodes>
          <leafValues>
            -8.8961265981197357e-02 2.7947664260864258e-01</leafValues></_>
        <_>
          <internalNodes>
            0 -1 872 -1.1461162939667702e-02</internalNodes>
          <leafValues>
            -9.3160516023635864e-01 2.2567773237824440e-02</leafValues></_>
        <_>
          <internalNodes>
            0 -1 501 6.9479551166296005e-03</internalNodes>
          <leafValues>
            -1.3376013934612274e-01 2.0440259575843811e-01</leafValues></_>
        <_>
          <internalNodes>
            0 -1 687 -5.1969091873615980e-04</internalNodes>
          <leafValues>
            -4.6980991959571838e-01 4.5634336769580841e-02</leafValues></_>
        <_>
          <internalNodes>
            0 -1 716 1.8619411275722086e-04</internalNodes>
          <leafValues>
            9.3196384608745575e-02 -2.8596183657646179e-01</leafValues></_>
        <_>
          <internalNodes>
            0 -1 592 3.4619963262230158e-03</internalNodes>
          <leafValues>
            -9.6307836472988129e-02 2.9612144827842712e-01</leafValues></_>
        <_>
          <internalNodes>
            0 -1 571 -4.1531033813953400e-02</internalNodes>
          <leafValues>
            4.2303097248077393e-01 -5.0158508121967316e-02</leafValues></_>
        <_>
          <internalNodes>
            0 -1 561 -2.3549724370241165e-02</internalNodes>
          <leafValues>
            -7.1355289220809937e-01 3.5853747278451920e-02</leafValues></_>
        <_>
          <internalNodes>
            0 -1 163 4.4685177272185683e-04</internalNodes>
          <leafValues>
            6.6720239818096161e-02 -3.4073930978775024e-01</leafValues></_>
        <_>
          <internalNodes>
            0 -1 289 -1.9727316498756409e-01</internalNodes>
          <leafValues>
            8.3022898435592651e-01 -3.5240627825260162e-02</leafValues></_>
        <_>
          <internalNodes>
            0 -1 580 3.5487213172018528e-03</internalNodes>
          <leafValues>
            -9.1743543744087219e-02 2.5392287969589233e-01</leafValues></_>
        <_>
          <internalNodes>
            0 -1 847 3.5672090947628021e-02</internalNodes>
          <leafValues>
            -6.9702506065368652e-02 3.3500459790229797e-01</leafValues></_>
        <_>
          <internalNodes>
            0 -1 254 1.4044450595974922e-02</internalNodes>
          <leafValues>
            -1.0217396914958954e-01 2.1797230839729309e-01</leafValues></_>
        <_>
          <internalNodes>
            0 -1 707 -2.5167164858430624e-03</internalNodes>
          <leafValues>
            -3.4709960222244263e-01 6.7968808114528656e-02</leafValues></_>
        <_>
          <internalNodes>
            0 -1 731 -2.5991883594542742e-03</internalNodes>
          <leafValues>
            1.5666250884532928e-01 -1.6294224560260773e-01</leafValues></_>
        <_>
          <internalNodes>
            0 -1 722 -1.0889566037803888e-03</internalNodes>
          <leafValues>
            2.1009333431720734e-01 -1.1188144981861115e-01</leafValues></_>
        <_>
          <internalNodes>
            0 -1 524 5.8653526008129120e-02</internalNodes>
          <leafValues>
            5.9420898556709290e-02 -4.1275805234909058e-01</leafValues></_>
        <_>
          <internalNodes>
            0 -1 292 1.2283718213438988e-02</internalNodes>
          <leafValues>
            -8.6688116192817688e-02 3.3249402046203613e-01</leafValues></_>
        <_>
          <internalNodes>
            0 -1 14 -1.0539893060922623e-02</internalNodes>
          <leafValues>
            3.0886468291282654e-01 -7.8271828591823578e-02</leafValues></_>
        <_>
          <internalNodes>
            0 -1 575 3.0073517700657248e-04</internalNodes>
          <leafValues>
            -1.4948093891143799e-01 1.7792975902557373e-01</leafValues></_>
        <_>
          <internalNodes>
            0 -1 157 -2.4141754955053329e-02</internalNodes>
          <leafValues>
            5.5028772354125977e-01 -4.1989788413047791e-02</leafValues></_>
        <_>
          <internalNodes>
            0 -1 424 3.9319369941949844e-02</internalNodes>
          <leafValues>
            7.0879817008972168e-02 -3.4219804406166077e-01</leafValues></_>
        <_>
          <internalNodes>
            0 -1 477 1.2590810656547546e-02</internalNodes>
          <leafValues>
            -1.1359383165836334e-01 2.5136488676071167e-01</leafValues></_>
        <_>
          <internalNodes>
            0 -1 45 -2.8256420046091080e-03</internalNodes>
          <leafValues>
            2.5919038057327271e-01 -9.5624640583992004e-02</leafValues></_>
        <_>
          <internalNodes>
            0 -1 324 -5.8437220752239227e-02</internalNodes>
          <leafValues>
            -3.2072722911834717e-01 7.6563872396945953e-02</leafValues></_>
        <_>
          <internalNodes>
            0 -1 533 9.6458736807107925e-03</internalNodes>
          <leafValues>
            -9.4251513481140137e-02 2.6137328147888184e-01</leafValues></_>
        <_>
          <internalNodes>
            0 -1 747 -5.6687653064727783e-02</internalNodes>
          <leafValues>
            -8.1145304441452026e-01 3.2223425805568695e-02</leafValues></_>
        <_>
          <internalNodes>
            0 -1 521 7.2246198542416096e-03</internalNodes>
          <leafValues>
            5.0233148038387299e-02 -4.2761582136154175e-01</leafValues></_>
        <_>
          <internalNodes>
            0 -1 672 -1.3347100466489792e-03</internalNodes>
          <leafValues>
            -2.7588856220245361e-01 9.4365663826465607e-02</leafValues></_>
        <_>
          <internalNodes>
            0 -1 853 -9.6164718270301819e-03</internalNodes>
          <leafValues>
            -8.0685847997665405e-01 2.6327785104513168e-02</leafValues></_>
        <_>
          <internalNodes>
            0 -1 255 -3.2500628731213510e-04</internalNodes>
          <leafValues>
            2.4586080014705658e-01 -9.5490097999572754e-02</leafValues></_>
        <_>
          <internalNodes>
            0 -1 190 3.2466994598507881e-03</internalNodes>
          <leafValues>
            3.3871613442897797e-02 -6.8637329339981079e-01</leafValues></_>
        <_>
          <internalNodes>
            0 -1 547 6.1707454733550549e-04</internalNodes>
          <leafValues>
            9.7679674625396729e-02 -2.2926121950149536e-01</leafValues></_>
        <_>
          <internalNodes>
            0 -1 749 1.0699033737182617e-03</internalNodes>
          <leafValues>
            4.2395051568746567e-02 -4.9231263995170593e-01</leafValues></_>
        <_>
          <internalNodes>
            0 -1 811 -1.6960983630269766e-03</internalNodes>
          <leafValues>
            1.6089616715908051e-01 -1.3330227136611938e-01</leafValues></_>
        <_>
          <internalNodes>
            0 -1 585 1.3180179521441460e-03</internalNodes>
          <leafValues>
            -1.1401517689228058e-01 1.8779575824737549e-01</leafValues></_>
        <_>
          <internalNodes>
            0 -1 232 1.0340339690446854e-01</internalNodes>
          <leafValues>
            -4.4515594840049744e-02 5.3722351789474487e-01</leafValues></_>
        <_>
          <internalNodes>
            0 -1 42 1.0504536330699921e-01</internalNodes>
          <leafValues>
            3.0909292399883270e-02 -8.2659465074539185e-01</leafValues></_>
        <_>
          <internalNodes>
            0 -1 719 6.7460998892784119e-02</internalNodes>
          <leafValues>
            2.9416710138320923e-02 -5.6910693645477295e-01</leafValues></_>
        <_>
          <internalNodes>
            0 -1 745 -1.6050700098276138e-02</internalNodes>
          <leafValues>
            -5.6310504674911499e-01 3.1507603824138641e-02</leafValues></_></weakClassifiers></_>
    <!-- stage 11 -->
    <_>
      <maxWeakCount>57</maxWeakCount>
      <stageThreshold>-1.2527081966400146e+00</stageThreshold>
      <weakClassifiers>
        <_>
          <internalNodes>
            0 -1 751 -2.5933710858225822e-03</internalNodes>
          <leafValues>
            8.7939701974391937e-02 -3.4597876667976379e-01</leafValues></_>
        <_>
          <internalNodes>
            0 -1 640 -2.7241252828389406e-03</internalNodes>
          <leafValues>
            1.7391888797283173e-01 -2.2788287699222565e-01</leafValues></_>
        <_>
          <internalNodes>
            0 -1 265 -2.5604092516005039e-03</internalNodes>
          <leafValues>
            2.4860808253288269e-01 -1.5105409920215607e-01</leafValues></_>
        <_>
          <internalNodes>
            0 -1 311 6.9651588797569275e-02</internalNodes>
          <leafValues>
            -8.9543819427490234e-02 3.4083884954452515e-01</leafValues></_>
        <_>
          <internalNodes>
            0 -1 317 -2.5652914773672819e-03</internalNodes>
          <leafValues>
            1.8841613829135895e-01 -2.0134350657463074e-01</leafValues></_>
        <_>
          <internalNodes>
            0 -1 323 6.6155210137367249e-02</internalNodes>
          <leafValues>
            7.3847912251949310e-02 -5.2738004922866821e-01</leafValues></_>
        <_>
          <internalNodes>
            0 -1 690 -1.5208291588351130e-03</internalNodes>
          <leafValues>
            2.6107618212699890e-01 -1.0599125176668167e-01</leafValues></_>
        <_>
          <internalNodes>
            0 -1 795 -2.4083680473268032e-03</internalNodes>
          <leafValues>
            2.4888715147972107e-01 -1.4408935606479645e-01</leafValues></_>
        <_>
          <internalNodes>
            0 -1 346 9.6796192228794098e-03</internalNodes>
          <leafValues>
            -9.8486162722110748e-02 3.3566531538963318e-01</leafValues></_>
        <_>
          <internalNodes>
            0 -1 589 -9.9561747629195452e-04</internalNodes>
          <leafValues>
            -2.6502251625061035e-01 1.3291706144809723e-01</leafValues></_>
        <_>
          <internalNodes>
            0 -1 589 6.0885935090482235e-04</internalNodes>
          <leafValues>
            9.7090601921081543e-02 -3.1037467718124390e-01</leafValues></_>
        <_>
          <internalNodes>
            0 -1 802 -9.3515787739306688e-04</internalNodes>
          <leafValues>
            -3.0574902892112732e-01 1.0439935326576233e-01</leafValues></_>
        <_>
          <internalNodes>
            0 -1 17 -2.4782825261354446e-02</internalNodes>
          <leafValues>
            4.9185320734977722e-01 -9.8395302891731262e-02</leafValues></_>
        <_>
          <internalNodes>
            0 -1 760 6.2814210541546345e-03</internalNodes>
          <leafValues>
            -4.5899592339992523e-02 3.7932491302490234e-01</leafValues></_>
        <_>
          <internalNodes>
            0 -1 468 1.4318786561489105e-02</internalNodes>
          <leafValues>
            4.7384113073348999e-02 -5.8613747358322144e-01</leafValues></_>
        <_>
          <internalNodes>
            0 -1 247 -1.9075579475611448e-03</internalNodes>
          <leafValues>
            -4.2688539624214172e-01 5.7442974299192429e-02</leafValues></_>
        <_>
          <internalNodes>
            0 -1 388 -3.5942971706390381e-02</internalNodes>
          <leafValues>
            8.3237874507904053e-01 -4.2587190866470337e-02</leafValues></_>
        <_>
          <internalNodes>
            0 -1 420 2.0121238194406033e-03</internalNodes>
          <leafValues>
            -6.5060108900070190e-02 3.8084599375724792e-01</leafValues></_>
        <_>
          <internalNodes>
            0 -1 413 -9.4888433814048767e-03</internalNodes>
          <leafValues>
            1.7113748192787170e-01 -1.4810091257095337e-01</leafValues></_>
        <_>
          <internalNodes>
            0 -1 790 -1.7203196883201599e-02</internalNodes>
          <leafValues>
            -4.0943148732185364e-01 6.7513167858123779e-02</leafValues></_>
        <_>
          <internalNodes>
            0 -1 577 -2.6452096179127693e-02</internalNodes>
          <leafValues>
            3.0348688364028931e-01 -8.9944399893283844e-02</leafValues></_>
        <_>
          <internalNodes>
            0 -1 564 2.0585677027702332e-01</internalNodes>
          <leafValues>
            4.3518923223018646e-02 -7.3510593175888062e-01</leafValues></_>
        <_>
          <internalNodes>
            0 -1 784 -7.3493018746376038e-02</internalNodes>
          <leafValues>
            2.7535924315452576e-01 -1.0827447474002838e-01</leafValues></_>
        <_>
          <internalNodes>
            0 -1 657 1.0109008103609085e-01</internalNodes>
          <leafValues>
            -1.1155365407466888e-01 2.9266017675399780e-01</leafValues></_>
        <_>
          <internalNodes>
            0 -1 572 3.9360307157039642e-02</internalNodes>
          <leafValues>
            -4.3831091374158859e-02 4.6637105941772461e-01</leafValues></_>
        <_>
          <internalNodes>
            0 -1 669 -7.2371354326605797e-03</internalNodes>
          <leafValues>
            2.1456839144229889e-01 -1.2769322097301483e-01</leafValues></_>
        <_>
          <internalNodes>
            0 -1 602 4.0256857872009277e-02</internalNodes>
          <leafValues>
            3.5858739167451859e-02 -6.6682529449462891e-01</leafValues></_>
        <_>
          <internalNodes>
            0 -1 895 -7.1824277983978391e-04</internalNodes>
          <leafValues>
            -3.3078363537788391e-01 7.1851424872875214e-02</leafValues></_>
        <_>
          <internalNodes>
            0 -1 43 7.0185348391532898e-02</internalNodes>
          <leafValues>
            -5.8906830847263336e-02 4.0331774950027466e-01</leafValues></_>
        <_>
          <internalNodes>
            0 -1 203 2.7892999351024628e-03</internalNodes>
          <leafValues>
            -9.6459485590457916e-02 2.7306330204010010e-01</leafValues></_>
        <_>
          <internalNodes>
            0 -1 55 7.5752881821244955e-04</internalNodes>
          <leafValues>
            -1.4622652530670166e-01 2.0049980282783508e-01</leafValues></_>
        <_>
          <internalNodes>
            0 -1 105 -6.3596572726964951e-04</internalNodes>
          <leafValues>
            -3.1907537579536438e-01 9.0069770812988281e-02</leafValues></_>
        <_>
          <internalNodes>
            0 -1 446 -5.9363711625337601e-03</internalNodes>
          <leafValues>
            -3.8039889931678772e-01 5.2126731723546982e-02</leafValues></_>
        <_>
          <internalNodes>
            0 -1 556 -8.0775469541549683e-02</internalNodes>
          <leafValues>
            -5.7901316881179810e-01 4.4295459985733032e-02</leafValues></_>
        <_>
          <internalNodes>
            0 -1 656 6.0479906387627125e-03</internalNodes>
          <leafValues>
            -1.0554190725088120e-01 2.4859817326068878e-01</leafValues></_>
        <_>
          <internalNodes>
            0 -1 917 -6.1033726669847965e-03</internalNodes>
          <leafValues>
            3.3744528889656067e-01 -6.7682750523090363e-02</leafValues></_>
        <_>
          <internalNodes>
            0 -1 182 -5.3809094242751598e-04</internalNodes>
          <leafValues>
            -2.1035385131835938e-01 1.3163574039936066e-01</leafValues></_>
        <_>
          <internalNodes>
            0 -1 777 -2.3802965879440308e-03</internalNodes>
          <leafValues>
